age,how_tall_in_meters,weight,body_mass_index,x1,y1,z1,x2,y2,z2,x3,y3,z3,x4,y4,z4,user_debora,user_katia,user_wallace,user_jose_carlos,gender_Woman,gender_Man,class_sitting,class_sittingdown,class_standing,class_standingup,class_walking
46,162,74.95634511134021,28.6,-4,80,-82,0,54,-132,21,108,-100,-179,-91,-178,1,0,0,0,1,0,0,0,0,0,1
28,158,54.937488133017126,22.0,-14,107,-129,-492,-516,-615,38,117,-134,-187,-81,-173,0,1,0,0,1,0,0,0,0,0,1
31,171,82.88453946464487,28.4,-1,69,-66,-25,-3,-24,85,78,-141,-102,-124,-141,0,0,1,0,0,1,1,0,0,0,0
31,171,82.88478344239954,28.4,8,71,-56,-33,-21,-23,69,62,-109,-90,-138,-172,0,0,1,0,0,1,1,0,0,0,0
28,158,54.9374538903031,22.0,-5,98,-111,-445,-467,-568,30,118,-133,-179,-82,-180,0,1,0,0,1,0,0,0,0,0,1
46,162,74.95572105273457,28.6,-1,88,-48,-22,22,-19,12,109,-88,-163,-95,-150,1,0,0,0,1,0,1,0,0,0,0
28,158,54.937627390910556,22.0,-3,99,-120,-492,-516,-616,23,121,-123,-195,-83,-174,0,1,0,0,1,0,0,0,0,0,1
31,171,82.88544479775477,28.4,-9,93,-125,0,89,-136,32,126,-80,-173,-67,-153,0,0,1,0,0,1,0,0,1,0,0
31,171,82.88553143993802,28.4,27,58,-145,-331,-375,-512,-31,142,-76,-199,-52,-167,0,0,1,0,0,1,0,0,0,0,1
28,158,54.93964349146678,22.0,-25,24,-22,-245,-246,-330,38,108,-102,-162,-90,-168,0,1,0,0,1,0,1,0,0,0,0
75,167,66.87527892348888,24.0,-12,97,-102,-12,-19,-20,-65,89,-104,-102,-145,-132,0,0,0,1,0,1,1,0,0,0,0
28,158,54.93341580097945,22.0,2,90,-128,-14,-1,-21,-28,50,-123,-198,-88,-147,0,1,0,0,1,0,0,0,0,1,0
31,171,82.88031866638312,28.4,-10,110,-106,-109,-126,-196,5,132,-93,-218,-72,-187,0,0,1,0,0,1,0,0,0,0,1
31,171,82.88331900103589,28.4,-5,72,-123,-483,-506,-606,1,126,-98,-232,-81,-183,0,0,1,0,0,1,0,0,0,0,1
46,162,74.9561940771463,28.6,-6,102,-97,4,83,-121,24,107,-97,-180,-89,-160,1,0,0,0,1,0,0,0,1,0,0
28,158,54.93615007475401,22.0,-10,102,-95,-492,-514,-613,15,100,-105,-194,-88,-171,0,1,0,0,1,0,0,0,1,0,0
46,162,74.95775678279072,28.6,1,152,-91,-20,140,-87,-205,161,24,-161,-87,-156,1,0,0,0,1,0,0,0,0,0,1
31,171,82.88747673350117,28.4,11,126,-110,11,92,-124,1,44,-140,-194,-69,-150,0,0,1,0,0,1,0,0,0,0,1
28,158,54.93568603104548,22.0,-14,100,-92,-492,-516,-616,23,109,-99,-192,-80,-160,0,1,0,0,1,0,0,0,1,0,0
31,171,82.88603478696663,28.4,5,73,-60,-20,10,-23,82,75,-143,-102,-116,-193,0,0,1,0,0,1,1,0,0,0,0
28,158,54.93926134113442,22.0,-29,30,-30,-262,-270,-340,27,106,-88,-148,-94,-169,0,1,0,0,1,0,1,0,0,0,0
31,171,82.87970479865837,28.4,-1,89,-93,-17,-2,-22,-10,118,-83,-125,-114,-111,0,0,1,0,0,1,0,1,0,0,0
46,162,74.95859866194155,28.6,12,87,-104,-10,110,-130,-4,142,-65,-153,-63,-164,1,0,0,0,1,0,0,0,0,0,1
31,171,82.88981014784021,28.4,-12,97,-134,11,84,-126,13,120,-84,-156,-73,-179,0,0,1,0,0,1,0,0,0,1,0
46,162,74.95598255943759,28.6,1,96,-89,17,52,-113,11,106,-92,-172,-96,-168,1,0,0,0,1,0,0,0,0,0,1
46,162,74.95432636564463,28.6,23,112,-38,16,27,-34,15,96,-57,-166,-97,-151,1,0,0,0,1,0,0,1,0,0,0
28,158,54.93473590570875,22.0,-14,37,-16,-19,-25,-28,29,107,-81,-154,-93,-162,0,1,0,0,1,0,1,0,0,0,0
75,167,66.8758099657017,24.0,-15,96,-101,-10,-8,-20,-62,87,-128,-96,-141,-146,0,0,0,1,0,1,1,0,0,0,0
31,171,82.88725893178264,28.4,-13,131,-112,144,143,-66,0,138,-84,-190,-60,-190,0,0,1,0,0,1,0,0,0,0,1
31,171,82.88447193600611,28.4,-3,93,-109,12,89,-112,19,124,-89,-164,-77,-152,0,0,1,0,0,1,0,0,1,0,0
28,158,54.93691271349263,22.0,-22,94,-111,-491,-515,-616,30,96,-112,-174,-87,-166,0,1,0,0,1,0,0,0,0,0,1
46,162,74.95539295212681,28.6,2,108,-89,17,94,-89,13,108,-103,-180,-87,-168,1,0,0,0,1,0,0,0,1,0,0
31,171,82.88142091352631,28.4,-9,94,-111,-38,-10,-29,48,41,-66,-106,-111,-201,0,0,1,0,0,1,0,0,0,1,0
31,171,82.88593211878387,28.4,7,72,-58,-17,9,-22,65,58,-104,-100,-119,-184,0,0,1,0,0,1,1,0,0,0,0
46,162,74.95777791188877,28.6,20,93,-8,15,30,-28,17,102,-46,-139,-101,-149,1,0,0,0,1,0,1,0,0,0,0
28,158,54.93828711887349,22.0,-1,99,-90,-7,83,-127,27,95,-45,-194,-82,-154,0,1,0,0,1,0,0,0,1,0,0
28,158,54.93845112898341,22.0,0,102,-97,11,89,-116,27,106,-86,-196,-85,-162,0,1,0,0,1,0,0,0,1,0,0
46,162,74.95380820119244,28.6,-7,112,-140,12,47,-27,23,108,-77,-237,-77,-155,1,0,0,0,1,0,0,0,0,1,0
28,158,54.93467086114806,22.0,-16,38,-14,-1,-21,-20,25,108,-81,-147,-95,-163,0,1,0,0,1,0,1,0,0,0,0
31,171,82.8865872318831,28.4,0,116,-115,-7,101,-110,11,128,-91,-207,-74,-190,0,0,1,0,0,1,0,0,0,0,1
46,162,74.95519382413153,28.6,1,94,-87,4,48,-107,11,108,-89,-184,-104,-161,1,0,0,0,1,0,0,0,0,0,1
75,167,66.87551269644428,24.0,-11,95,-91,-18,-15,-22,-59,88,-133,-105,-151,-135,0,0,0,1,0,1,1,0,0,0,0
28,158,54.936959240480576,22.0,-32,18,-31,-278,-362,-377,30,110,-101,-155,-93,-164,0,1,0,0,1,0,1,0,0,0,0
46,162,74.95578562097636,28.6,-11,92,-100,-1,72,-124,15,104,-89,-159,-103,-157,1,0,0,0,1,0,0,0,1,0,0
46,162,74.95145152511117,28.6,-6,95,-84,11,13,-15,48,98,-62,-180,-89,-155,1,0,0,0,1,0,0,0,0,1,0
28,158,54.937906775127146,22.0,-10,120,-93,-50,136,-83,-90,240,-38,-164,-87,-151,0,1,0,0,1,0,0,0,0,0,1
46,162,74.9556176804744,28.6,-10,93,-97,0,73,-120,15,103,-90,-163,-103,-157,1,0,0,0,1,0,0,0,1,0,0
46,162,74.95603048113524,28.6,-11,94,-98,0,78,-123,14,104,-90,-168,-104,-161,1,0,0,0,1,0,0,0,1,0,0
46,162,74.95581359782616,28.6,2,90,-47,-20,22,-16,10,108,-91,-164,-93,-158,1,0,0,0,1,0,1,0,0,0,0
28,158,54.93885169288442,22.0,-3,102,-101,8,84,-129,37,102,-86,-186,-81,-158,0,1,0,0,1,0,0,0,1,0,0
28,158,54.93684808560202,22.0,-6,90,-116,-381,-400,-501,35,120,-132,-186,-84,-174,0,1,0,0,1,0,0,0,0,0,1
75,167,66.87543865783431,24.0,-10,94,-149,-10,87,-95,12,121,-117,-189,-81,-159,0,0,0,1,0,1,0,0,0,0,1
28,158,54.93788991478572,22.0,-2,127,-108,-492,-516,-616,30,140,-114,-167,-66,-167,0,1,0,0,1,0,0,0,0,0,1
28,158,54.94130162236573,22.0,-30,27,-26,-274,-370,-452,27,108,-87,-154,-93,-170,0,1,0,0,1,0,1,0,0,0,0
28,158,54.93689431758178,22.0,6,107,-138,-1,70,-34,11,89,-33,-257,-74,-131,0,1,0,0,1,0,0,0,0,1,0
28,158,54.941078500981796,22.0,-8,96,-112,-8,87,-100,21,110,-120,-192,-90,-141,0,1,0,0,1,0,0,1,0,0,0
46,162,74.95413507511127,28.6,-1,104,-93,-16,87,-59,8,109,-91,-185,-107,-168,1,0,0,0,1,0,0,0,0,0,1
28,158,54.93773302111581,22.0,-3,93,-119,-483,-506,-606,25,73,-113,-179,-85,-174,0,1,0,0,1,0,0,0,0,0,1
28,158,54.93959004960616,22.0,-7,136,-120,-369,-471,-581,91,99,-97,-167,-53,-174,0,1,0,0,1,0,0,0,0,0,1
31,171,82.88691662227197,28.4,1,73,-129,7,76,-83,31,119,-64,-152,-95,-153,0,0,1,0,0,1,0,0,0,1,0
31,171,82.88579275817935,28.4,-32,96,-111,-9,95,-127,24,90,-98,-206,-92,-174,0,0,1,0,0,1,0,0,0,0,1
28,158,54.93556639161284,22.0,-26,85,-127,-493,-516,-616,35,160,-126,-151,-28,-168,0,1,0,0,1,0,0,0,0,0,1
46,162,74.95492065529469,28.6,-9,92,-96,2,73,-106,8,103,-96,-167,-104,-163,1,0,0,0,1,0,0,0,1,0,0
28,158,54.938179144867334,22.0,-6,102,-129,-492,-515,-616,37,118,-138,-171,-90,-182,0,1,0,0,1,0,0,0,0,0,1
75,167,66.87456551267005,24.0,-8,83,-180,-20,58,-48,-5,118,-97,-217,-85,-140,0,0,0,1,0,1,0,1,0,0,0
46,162,74.95648323829535,28.6,-8,69,-39,-6,19,-35,3,95,-72,-156,-109,-166,1,0,0,0,1,0,1,0,0,0,0
46,162,74.95801264033366,28.6,27,97,1,19,32,-27,24,100,-45,-138,-98,-144,1,0,0,0,1,0,1,0,0,0,0
75,167,66.87380991387799,24.0,-14,96,-102,0,-17,-20,-64,90,-99,-188,-91,-126,0,0,0,1,0,1,1,0,0,0,0
28,158,54.940592462820234,22.0,-13,124,-127,-493,-516,-616,19,98,-40,-221,-91,-135,0,1,0,0,1,0,0,0,0,1,0
31,171,82.88112268988417,28.4,-2,98,-109,-18,-20,-20,52,46,-87,-114,-118,-198,0,0,1,0,0,1,0,0,0,1,0
75,167,66.87462785001385,24.0,-11,98,-122,2,-17,-20,7,-1,-87,-239,-104,-124,0,0,0,1,0,1,1,0,0,0,0
28,158,54.94058924470251,22.0,-24,21,-23,-243,-218,-327,38,108,-102,-161,-91,-166,0,1,0,0,1,0,1,0,0,0,0
28,158,54.93754976975542,22.0,-27,32,-30,-263,-317,-344,30,109,-101,-154,-93,-162,0,1,0,0,1,0,1,0,0,0,0
28,158,54.9372594941309,22.0,-12,100,-139,-492,-515,-615,22,137,-116,-166,-65,-172,0,1,0,0,1,0,0,0,0,0,1
46,162,74.95930887161587,28.6,-9,117,-140,33,105,-113,269,142,-294,-160,-88,-154,1,0,0,0,1,0,0,0,0,0,1
46,162,74.95751660786254,28.6,1,103,-143,-9,77,-62,12,107,-71,-197,-96,-155,1,0,0,0,1,0,0,1,0,0,0
31,171,82.88367143730358,28.4,-13,78,-100,-293,-356,-469,17,97,-126,-191,-81,-170,0,0,1,0,0,1,0,0,0,0,1
31,171,82.88713360845122,28.4,-10,106,-137,-128,-172,-369,-83,188,-98,-204,-43,-166,0,0,1,0,0,1,0,0,0,0,1
28,158,54.93621236950812,22.0,-8,103,-96,-491,-513,-613,17,102,-103,-188,-84,-167,0,1,0,0,1,0,0,0,1,0,0
28,158,54.93849230183982,22.0,-5,105,-92,2,86,-124,22,95,-92,-196,-86,-159,0,1,0,0,1,0,0,0,1,0,0
31,171,82.88549983685994,28.4,-1,67,-65,-24,6,-27,85,80,-139,-93,-113,-179,0,0,1,0,0,1,1,0,0,0,0
46,162,74.9567010520646,28.6,-16,118,-84,-26,81,-129,-59,127,50,-167,-84,-160,1,0,0,0,1,0,0,0,0,0,1
28,158,54.93233205172089,22.0,-8,94,-107,0,-9,-18,14,96,-108,-200,-86,-133,0,1,0,0,1,0,0,1,0,0,0
46,162,74.95799054169782,28.6,3,99,-105,-23,79,-128,20,104,-103,-178,-113,-165,1,0,0,0,1,0,0,0,0,0,1
28,158,54.93442349610056,22.0,-18,35,-20,-12,-25,-22,25,108,-81,-147,-96,-163,0,1,0,0,1,0,1,0,0,0,0
28,158,54.93595870319507,22.0,-12,101,-91,-492,-514,-614,19,107,-102,-195,-87,-167,0,1,0,0,1,0,0,0,1,0,0
28,158,54.94130174978453,22.0,-31,27,-20,-278,-377,-459,28,109,-86,-151,-94,-170,0,1,0,0,1,0,1,0,0,0,0
31,171,82.88401142433106,28.4,-8,93,-113,51,51,-122,26,124,-84,-161,-74,-162,0,0,1,0,0,1,0,0,1,0,0
31,171,82.88645298739446,28.4,-6,99,-117,17,90,-141,36,116,-80,-169,-78,-155,0,0,1,0,0,1,0,0,1,0,0
31,171,82.88654841461789,28.4,13,138,-107,80,143,-60,21,199,-72,-235,-61,-175,0,0,1,0,0,1,0,0,0,0,1
31,171,82.88588012875687,28.4,-15,99,-124,3,92,-139,36,119,-79,-174,-77,-153,0,0,1,0,0,1,0,0,1,0,0
28,158,54.93751736369317,22.0,0,88,-108,-488,-511,-611,21,123,-125,-186,-87,-179,0,1,0,0,1,0,0,0,0,0,1
46,162,74.95661829537693,28.6,-7,103,-102,6,84,-126,23,108,-93,-176,-89,-161,1,0,0,0,1,0,0,0,1,0,0
46,162,74.95415566676459,28.6,-3,104,-83,16,82,-83,13,108,-104,-186,-89,-165,1,0,0,0,1,0,0,0,1,0,0
31,171,82.88396841874216,28.4,1,69,-64,-24,-31,-25,67,61,-99,-87,-125,-160,0,0,1,0,0,1,1,0,0,0,0
28,158,54.93859659800879,22.0,-2,101,-98,2,85,-124,29,106,-86,-197,-87,-163,0,1,0,0,1,0,0,0,1,0,0
28,158,54.936718302576054,22.0,-21,118,-119,-493,-516,-616,16,253,-103,-178,-78,-165,0,1,0,0,1,0,0,0,0,0,1
75,167,66.87548503001214,24.0,-10,95,-97,-22,-15,-22,-67,83,-126,-99,-130,-151,0,0,0,1,0,1,1,0,0,0,0
31,171,82.88584409044056,28.4,-11,93,-125,3,89,-142,35,124,-78,-166,-70,-152,0,0,1,0,0,1,0,0,1,0,0
31,171,82.88564803374315,28.4,-8,96,-134,9,93,-129,40,123,-76,-172,-68,-157,0,0,1,0,0,1,0,0,1,0,0
75,167,66.8752040624666,24.0,-12,92,-93,-20,-14,-22,-63,86,-131,-101,-121,-152,0,0,0,1,0,1,1,0,0,0,0
28,158,54.93582705275367,22.0,-7,85,-154,22,34,-31,16,106,-130,-267,-131,-136,0,1,0,0,1,0,0,1,0,0,0
31,171,82.89031689560676,28.4,-11,91,-131,68,92,-202,2,129,-88,-235,-36,-166,0,0,1,0,0,1,0,0,0,0,1
28,158,54.93294303830277,22.0,-1,97,-102,15,-8,-14,26,93,-96,-186,-86,-145,0,1,0,0,1,0,0,1,0,0,0
46,162,74.9562505251562,28.6,-1,96,-110,27,91,-98,10,117,-80,-155,-58,-162,1,0,0,0,1,0,0,0,0,0,1
28,158,54.93873776176575,22.0,-7,100,-101,10,85,-130,37,101,-88,-184,-79,-157,0,1,0,0,1,0,0,0,1,0,0
31,171,82.88390843755667,28.4,-10,93,-113,60,42,-126,28,123,-83,-161,-74,-161,0,0,1,0,0,1,0,0,1,0,0
46,162,74.95609323739906,28.6,-1,100,-66,-12,20,-16,-14,104,-90,-157,-99,-148,1,0,0,0,1,0,1,0,0,0,0
75,167,66.87521866111405,24.0,-14,95,-99,-18,-15,-21,-60,87,-132,-105,-142,-132,0,0,0,1,0,1,1,0,0,0,0
46,162,74.95683560665213,28.6,4,93,-90,-17,80,-115,72,19,-148,-192,-79,-163,1,0,0,0,1,0,0,0,0,0,1
28,158,54.937169117543746,22.0,-20,120,-136,-458,-480,-579,46,119,-141,-187,-68,-169,0,1,0,0,1,0,0,0,0,0,1
28,158,54.94030988614382,22.0,-3,91,-73,-473,-490,-596,4,84,-86,-170,-87,-152,0,1,0,0,1,0,0,0,0,1,0
75,167,66.8765882954047,24.0,-15,92,-138,-14,78,-75,-3,121,-98,-224,-94,-146,0,0,0,1,0,1,0,0,0,1,0
75,167,66.87557441525232,24.0,-11,96,-115,26,-35,-35,-54,94,-82,-111,-111,-138,0,0,0,1,0,1,1,0,0,0,0
31,171,82.88610154773313,28.4,-14,110,-157,-270,-288,-389,-8,109,-90,-169,-94,-115,0,0,1,0,0,1,0,0,0,1,0
31,171,82.88449351796216,28.4,-43,43,-141,-2,87,-151,20,168,-55,-222,-56,-170,0,0,1,0,0,1,0,0,0,0,1
31,171,82.88514362618315,28.4,-31,94,-117,10,92,-127,-1,164,-58,-216,-76,-166,0,0,1,0,0,1,0,0,0,0,1
46,162,74.95616550342407,28.6,-15,106,-87,-333,-425,-533,50,148,-86,-152,-96,-170,1,0,0,0,1,0,0,0,0,0,1
46,162,74.95687284762388,28.6,-18,84,-88,-14,84,-124,59,32,-130,-168,-100,-161,1,0,0,0,1,0,0,0,0,0,1
31,171,82.8855668961621,28.4,-6,95,-115,14,89,-127,26,123,-85,-161,-74,-166,0,0,1,0,0,1,0,0,1,0,0
31,171,82.88582487184689,28.4,-9,89,-126,0,88,-139,31,119,-81,-173,-76,-162,0,0,1,0,0,1,0,0,1,0,0
46,162,74.95850579041415,28.6,36,114,26,18,38,-24,25,100,-30,-129,-95,-142,1,0,0,0,1,0,1,0,0,0,0
28,158,54.93882000690155,22.0,-16,81,-86,-233,-204,-307,-335,-417,-491,-167,-92,-157,0,1,0,0,1,0,0,0,0,1,0
46,162,74.96086502111626,28.6,-2,102,-105,11,89,-115,16,106,-69,-161,-90,-156,1,0,0,0,1,0,0,1,0,0,0
28,158,54.938662517097676,22.0,-1,102,-97,4,87,-122,25,102,-89,-199,-87,-165,0,1,0,0,1,0,0,0,1,0,0
31,171,82.88549887359245,28.4,1,67,-65,-28,0,-27,87,80,-138,-98,-119,-187,0,0,1,0,0,1,1,0,0,0,0
28,158,54.938489446025145,22.0,-3,102,-94,15,87,-122,41,107,-78,-189,-80,-155,0,1,0,0,1,0,0,0,1,0,0
46,162,74.95417134344389,28.6,-7,111,-141,-9,18,-53,32,90,-86,-207,-80,-154,1,0,0,0,1,0,0,0,0,1,0
28,158,54.937241592897635,22.0,-4,98,-95,-493,-516,-616,18,129,-117,-156,-68,-176,0,1,0,0,1,0,0,0,0,0,1
31,171,82.88599689010589,28.4,-9,98,-123,6,92,-137,36,122,-79,-175,-75,-156,0,0,1,0,0,1,0,0,1,0,0
28,158,54.93873613433794,22.0,-4,101,-101,11,85,-127,37,107,-82,-186,-82,-157,0,1,0,0,1,0,0,0,1,0,0
46,162,74.9561405805508,28.6,-7,100,-90,-5,81,-125,30,106,-88,-182,-90,-163,1,0,0,0,1,0,0,0,1,0,0
31,171,82.88579898553438,28.4,-14,90,-126,1,87,-142,33,119,-83,-169,-77,-159,0,0,1,0,0,1,0,0,1,0,0
75,167,66.87594704922242,24.0,-13,96,-98,-10,-8,-21,-62,87,-129,-96,-143,-146,0,0,0,1,0,1,1,0,0,0,0
28,158,54.93753416518346,22.0,4,104,-167,40,17,-51,23,111,-115,-203,-114,-131,0,1,0,0,1,0,0,1,0,0,0
31,171,82.88492871722289,28.4,-11,94,-115,16,88,-123,25,124,-81,-164,-70,-161,0,0,1,0,0,1,0,0,1,0,0
46,162,74.95699384644773,28.6,-19,115,-84,-25,81,-135,-47,209,42,-157,-103,-159,1,0,0,0,1,0,0,0,0,0,1
28,158,54.93571237666908,22.0,-25,26,-24,-264,-355,-341,37,108,-102,-153,-92,-161,0,1,0,0,1,0,1,0,0,0,0
75,167,66.8739210052976,24.0,-15,90,-158,-6,88,-93,16,125,-104,-189,-71,-152,0,0,0,1,0,1,0,0,1,0,0
31,171,82.88387775298656,28.4,-1,69,-66,-24,-32,-25,66,59,-99,-87,-125,-160,0,0,1,0,0,1,1,0,0,0,0
46,162,74.95673119714799,28.6,-4,66,-55,-10,14,-38,-2,94,-74,-162,-109,-173,1,0,0,0,1,0,1,0,0,0,0
46,162,74.9559691948951,28.6,-1,101,-85,16,67,-101,12,108,-94,-171,-99,-170,1,0,0,0,1,0,0,0,0,0,1
28,158,54.93653737445571,22.0,-7,95,-73,-392,-444,-544,20,138,-124,-174,-66,-167,0,1,0,0,1,0,0,0,0,0,1
31,171,82.8843215513342,28.4,1,62,-61,-37,-26,-27,70,63,-110,-86,-144,-163,0,0,1,0,0,1,1,0,0,0,0
31,171,82.88550846943616,28.4,1,66,-64,-20,6,-27,67,61,-102,-94,-119,-167,0,0,1,0,0,1,1,0,0,0,0
46,162,74.95549093385767,28.6,-11,92,-95,-8,69,-125,10,100,-67,-159,-101,-154,1,0,0,0,1,0,0,0,1,0,0
31,171,82.885666385608,28.4,-9,91,-125,4,89,-138,35,125,-78,-169,-68,-156,0,0,1,0,0,1,0,0,1,0,0
28,158,54.938573202112735,22.0,-1,102,-94,16,89,-118,35,102,-84,-194,-85,-160,0,1,0,0,1,0,0,0,1,0,0
31,171,82.88567892991364,28.4,2,70,-63,-23,8,-25,90,83,-138,-93,-114,-180,0,0,1,0,0,1,1,0,0,0,0
46,162,74.95478187923999,28.6,-6,85,-95,6,-11,-90,40,39,-62,-177,-94,-148,1,0,0,0,1,0,0,0,0,1,0
46,162,74.95836573895659,28.6,32,102,10,16,36,-26,28,101,-42,-135,-100,-145,1,0,0,0,1,0,1,0,0,0,0
75,167,66.87557224356343,24.0,-13,86,-150,-25,80,-106,12,87,-141,-194,-95,-154,0,0,0,1,0,1,0,0,0,0,1
46,162,74.95906296721934,28.6,15,109,-52,22,82,-80,19,105,-71,-161,-95,-156,1,0,0,0,1,0,0,1,0,0,0
28,158,54.9384535840228,22.0,0,101,-103,2,86,-121,16,88,-96,-192,-81,-157,0,1,0,0,1,0,0,0,1,0,0
46,162,74.96032334879138,28.6,-9,99,-87,14,87,-119,39,92,-67,-178,-88,-151,1,0,0,0,1,0,0,0,0,1,0
31,171,82.88466417622833,28.4,-6,91,-106,21,85,-119,21,122,-81,-166,-68,-164,0,0,1,0,0,1,0,0,1,0,0
75,167,66.8749961082861,24.0,-12,95,-97,4,-30,-21,-59,93,-122,-105,-121,-159,0,0,0,1,0,1,1,0,0,0,0
28,158,54.9391807955355,22.0,-28,20,-28,-257,-260,-337,37,108,-102,-160,-89,-168,0,1,0,0,1,0,1,0,0,0,0
46,162,74.95691872869365,28.6,-1,108,-91,7,92,-121,20,108,-97,-176,-90,-162,1,0,0,0,1,0,0,0,1,0,0
31,171,82.88425091322787,28.4,3,70,-62,-23,-27,-23,61,54,-104,-95,-129,-167,0,0,1,0,0,1,1,0,0,0,0
31,171,82.88518491649836,28.4,-6,96,-111,16,89,-122,22,124,-83,-159,-74,-160,0,0,1,0,0,1,0,0,1,0,0
28,158,54.938760374569114,22.0,-5,101,-99,1,84,-129,7,77,-100,-196,-87,-162,0,1,0,0,1,0,0,0,1,0,0
31,171,82.88582696074387,28.4,-10,92,-129,18,88,-136,45,115,-77,-177,-77,-152,0,0,1,0,0,1,0,0,1,0,0
46,162,74.95584340158712,28.6,-1,89,-48,-19,22,-17,16,108,-88,-158,-94,-159,1,0,0,0,1,0,1,0,0,0,0
28,158,54.93948949482568,22.0,-28,12,-31,-237,-242,-328,38,107,-102,-161,-91,-166,0,1,0,0,1,0,1,0,0,0,0
28,158,54.93801046129076,22.0,-8,90,-138,-21,70,-55,7,106,-125,-235,-122,-136,0,1,0,0,1,0,0,1,0,0,0
31,171,82.88569462393986,28.4,-10,91,-125,4,88,-140,34,125,-79,-170,-69,-155,0,0,1,0,0,1,0,0,1,0,0
31,171,82.88563120426441,28.4,-14,91,-129,-1,88,-143,34,126,-78,-169,-70,-150,0,0,1,0,0,1,0,0,1,0,0
46,162,74.95940868806774,28.6,4,103,-108,4,86,-87,15,107,-76,-164,-93,-158,1,0,0,0,1,0,0,1,0,0,0
46,162,74.95699555186948,28.6,2,85,-20,6,27,-28,16,97,-68,-149,-109,-155,1,0,0,0,1,0,1,0,0,0,0
31,171,82.88421186789962,28.4,6,71,-60,-21,-28,-22,63,56,-102,-90,-130,-159,0,0,1,0,0,1,1,0,0,0,0
28,158,54.93209379628795,22.0,-9,92,-128,9,-9,-4,15,50,-70,-202,-89,-139,0,1,0,0,1,0,0,1,0,0,0
75,167,66.87464765229852,24.0,-7,92,-143,-3,90,-97,12,120,-110,-185,-78,-154,0,0,0,1,0,1,0,0,1,0,0
31,171,82.88403688571644,28.4,0,66,-66,-24,-29,-25,62,55,-103,-95,-126,-166,0,0,1,0,0,1,1,0,0,0,0
46,162,74.95569294589846,28.6,5,159,-136,-22,79,-63,-9,122,-85,-143,-88,-163,1,0,0,0,1,0,0,0,0,0,1
28,158,54.938562231902,22.0,-3,104,-96,7,87,-121,33,104,-84,-200,-88,-161,0,1,0,0,1,0,0,0,1,0,0
31,171,82.88571119836978,28.4,-11,91,-126,3,89,-138,31,119,-80,-171,-75,-156,0,0,1,0,0,1,0,0,1,0,0
31,171,82.88566553380902,28.4,-20,83,-99,-270,-286,-387,8,111,-87,-130,-123,-128,0,0,1,0,0,1,0,1,0,0,0
28,158,54.93695042729093,22.0,-1,82,-113,-492,-515,-614,22,125,-142,-170,-68,-169,0,1,0,0,1,0,0,0,0,0,1
31,171,82.88527596025546,28.4,-18,77,-102,-269,-286,-386,-5,106,-84,-142,-117,-121,0,0,1,0,0,1,0,1,0,0,0
46,162,74.9559641659228,28.6,1,94,-57,-14,21,-14,16,108,-93,-164,-92,-162,1,0,0,0,1,0,1,0,0,0,0
46,162,74.95559116904258,28.6,-9,91,-91,-3,72,-121,13,104,-87,-161,-103,-161,1,0,0,0,1,0,0,0,1,0,0
28,158,54.94106775078802,22.0,-8,98,-106,1,84,-98,21,110,-121,-192,-89,-150,0,1,0,0,1,0,0,1,0,0,0
28,158,54.936002029846684,22.0,-23,78,-134,-483,-505,-605,47,168,-125,-151,-42,-181,0,1,0,0,1,0,0,0,0,0,1
31,171,82.88385940153272,28.4,-9,94,-112,63,45,-122,26,122,-83,-163,-75,-159,0,0,1,0,0,1,0,0,1,0,0
31,171,82.88483300488946,28.4,-12,92,-133,7,91,-124,38,122,-77,-181,-72,-146,0,0,1,0,0,1,0,0,1,0,0
31,171,82.8836708826058,28.4,1,97,-108,66,44,-114,19,124,-91,-176,-74,-158,0,0,1,0,0,1,0,0,1,0,0
75,167,66.87440225911408,24.0,-12,93,-157,-4,91,-93,14,120,-108,-196,-79,-155,0,0,0,1,0,1,0,0,1,0,0
28,158,54.93838230841722,22.0,-3,101,-101,3,84,-122,29,105,-86,-200,-85,-162,0,1,0,0,1,0,0,0,1,0,0
46,162,74.9542988326681,28.6,-9,101,-125,6,53,-35,14,105,-79,-226,-89,-161,1,0,0,0,1,0,0,0,0,1,0
31,171,82.88535708813384,28.4,5,121,-123,-2,59,-103,11,126,-89,-213,-93,-195,0,0,1,0,0,1,0,0,0,0,1
28,158,54.94065983788938,22.0,0,76,-136,-492,-515,-615,19,98,-45,-247,-110,-160,0,1,0,0,1,0,0,0,0,1,0
46,162,74.95557943105487,28.6,-11,93,-96,-1,68,-123,18,103,-90,-159,-105,-156,1,0,0,0,1,0,0,0,1,0,0
46,162,74.95647877251918,28.6,-6,103,-102,5,85,-123,23,108,-97,-179,-89,-160,1,0,0,0,1,0,0,0,1,0,0
31,171,82.89048866084347,28.4,7,126,-106,105,140,-121,10,136,-90,-221,-76,-189,0,0,1,0,0,1,0,0,0,0,1
31,171,82.88632548390147,28.4,-8,78,-156,-285,-297,-402,-6,113,-72,-222,-91,-168,0,0,1,0,0,1,0,1,0,0,0
31,171,82.88581847334498,28.4,7,68,-53,-17,9,-22,65,58,-104,-100,-120,-185,0,0,1,0,0,1,1,0,0,0,0
31,171,82.88513541238355,28.4,4,71,-61,-34,-6,-25,65,58,-103,-100,-120,-180,0,0,1,0,0,1,1,0,0,0,0
28,158,54.937074049813916,22.0,-11,106,-86,-492,-516,-616,38,138,-115,-168,-71,-176,0,1,0,0,1,0,0,0,0,0,1
28,158,54.93869997928554,22.0,0,102,-95,5,88,-123,29,106,-81,-196,-84,-162,0,1,0,0,1,0,0,0,1,0,0
46,162,74.95358199123763,28.6,19,106,-35,9,26,-23,10,103,-66,-141,-102,-159,1,0,0,0,1,0,0,1,0,0,0
31,171,82.88502795634561,28.4,0,66,-65,-37,-8,-28,66,59,-103,-97,-119,-184,0,0,1,0,0,1,1,0,0,0,0
28,158,54.94137659582038,22.0,-7,96,-108,-1,81,-105,19,109,-116,-185,-89,-150,0,1,0,0,1,0,0,1,0,0,0
46,162,74.95691117789367,28.6,-17,177,-117,-77,144,-60,7,121,-78,-164,-91,-172,1,0,0,0,1,0,0,0,0,0,1
31,171,82.88444444328655,28.4,-10,69,-107,-22,99,-127,53,218,-100,-222,-43,-164,0,0,1,0,0,1,0,0,0,0,1
46,162,74.95640927557228,28.6,-4,102,-94,-7,84,-125,26,106,-85,-180,-90,-161,1,0,0,0,1,0,0,0,1,0,0
46,162,74.9555310068752,28.6,-10,92,-93,-4,72,-120,12,103,-89,-166,-103,-163,1,0,0,0,1,0,0,0,1,0,0
28,158,54.938776600598,22.0,2,103,-103,2,87,-122,-1,67,-114,-211,-87,-162,0,1,0,0,1,0,0,0,1,0,0
46,162,74.95838834101677,28.6,-11,103,-118,-26,86,-155,13,162,-65,-157,-63,-160,1,0,0,0,1,0,0,0,0,0,1
46,162,74.96024703699828,28.6,-10,100,-91,10,79,-119,36,44,-68,-184,-92,-155,1,0,0,0,1,0,0,0,0,1,0
75,167,66.87480119461618,24.0,-13,97,-101,-10,-24,-22,-74,77,-96,-118,-119,-143,0,0,0,1,0,1,1,0,0,0,0
28,158,54.93749343735098,22.0,-29,21,-26,-207,-301,-323,27,107,-88,-147,-95,-168,0,1,0,0,1,0,1,0,0,0,0
28,158,54.9371596206783,22.0,-10,86,-122,-493,-516,-615,51,24,-109,-157,-68,-159,0,1,0,0,1,0,0,0,0,0,1
31,171,82.88562954728364,28.4,-27,91,-119,7,95,-118,52,34,-122,-212,-79,-172,0,0,1,0,0,1,0,0,0,0,1
28,158,54.934737056660765,22.0,-14,30,-17,-24,-22,-24,12,103,-74,-142,-97,-175,0,1,0,0,1,0,1,0,0,0,0
46,162,74.95488301987947,28.6,-3,96,-93,4,73,-100,9,103,-94,-169,-103,-164,1,0,0,0,1,0,0,0,1,0,0
28,158,54.94096984632756,22.0,-25,32,-27,-225,-236,-337,37,107,-102,-160,-93,-166,0,1,0,0,1,0,1,0,0,0,0
75,167,66.87517315180466,24.0,-14,94,-124,33,-52,-35,14,8,-95,-127,-107,-133,0,0,0,1,0,1,1,0,0,0,0
31,171,82.8850077746575,28.4,-5,135,-101,-16,146,-63,-153,265,-9,-182,-92,-179,0,0,1,0,0,1,0,0,0,0,1
31,171,82.88518112428748,28.4,1,67,-64,-36,-8,-29,66,59,-103,-97,-119,-186,0,0,1,0,0,1,1,0,0,0,0
31,171,82.88570450271762,28.4,3,67,-64,-19,6,-26,65,58,-104,-97,-123,-172,0,0,1,0,0,1,1,0,0,0,0
31,171,82.88755921157427,28.4,-12,69,-134,3,91,-94,-6,109,-64,-161,-93,-163,0,0,1,0,0,1,0,0,0,1,0
46,162,74.9553609281107,28.6,-4,98,-83,5,73,-112,23,104,-85,-164,-101,-155,1,0,0,0,1,0,0,0,1,0,0
28,158,54.9386812174502,22.0,1,106,-86,-2,85,-125,10,87,-70,-197,-86,-162,0,1,0,0,1,0,0,0,1,0,0
28,158,54.93451007141589,22.0,-17,36,-15,-26,-23,-22,15,105,-73,-142,-96,-173,0,1,0,0,1,0,1,0,0,0,0
28,158,54.93446839752065,22.0,-19,36,-20,-19,-26,-27,29,107,-81,-154,-94,-161,0,1,0,0,1,0,1,0,0,0,0
31,171,82.8870909172158,28.4,1,54,-120,52,22,-183,28,126,-100,-220,-94,-176,0,0,1,0,0,1,0,0,0,0,1
46,162,74.95457069158378,28.6,-8,87,-72,8,8,-77,24,65,-92,-188,-95,-161,1,0,0,0,1,0,0,0,0,1,0
28,158,54.93867747848659,22.0,-3,102,-98,7,88,-122,34,106,-82,-195,-88,-162,0,1,0,0,1,0,0,0,1,0,0
31,171,82.88564776880968,28.4,-8,96,-129,19,91,-132,50,121,-73,-181,-72,-144,0,0,1,0,0,1,0,0,1,0,0
31,171,82.8841328803805,28.4,3,67,-64,-25,-32,-25,72,66,-90,-86,-129,-167,0,0,1,0,0,1,1,0,0,0,0
28,158,54.93194854466485,22.0,-17,100,-112,6,-7,-7,11,110,-125,-180,-92,-137,0,1,0,0,1,0,0,1,0,0,0
28,158,54.93412514972967,22.0,-22,33,-22,-25,-28,-25,26,108,-81,-146,-96,-162,0,1,0,0,1,0,1,0,0,0,0
46,162,74.95959966636853,28.6,-5,119,-122,17,51,-173,11,142,-60,-161,-82,-161,1,0,0,0,1,0,0,0,0,0,1
46,162,74.95427264392139,28.6,-7,102,-53,3,62,-108,24,106,-85,-156,-97,-154,1,0,0,0,1,0,0,0,1,0,0
28,158,54.93812507734079,22.0,5,100,-119,-488,-511,-611,41,104,-87,-170,-83,-171,0,1,0,0,1,0,0,0,0,0,1
31,171,82.88510537654034,28.4,1,69,-62,-24,-7,-27,81,74,-135,-92,-115,-178,0,0,1,0,0,1,1,0,0,0,0
31,171,82.88580414668422,28.4,-4,97,-121,4,94,-133,32,125,-79,-181,-69,-156,0,0,1,0,0,1,0,0,1,0,0
46,162,74.95570636613841,28.6,-1,88,-47,-22,22,-19,12,108,-90,-164,-94,-151,1,0,0,0,1,0,1,0,0,0,0
31,171,82.88410163359337,28.4,-9,95,-109,57,54,-121,27,122,-82,-160,-77,-157,0,0,1,0,0,1,0,0,1,0,0
28,158,54.938741664340476,22.0,-2,102,-101,5,87,-122,23,98,-90,-199,-89,-166,0,1,0,0,1,0,0,0,1,0,0
28,158,54.93838278624683,22.0,-2,100,-83,-4,85,-126,19,94,-49,-196,-89,-156,0,1,0,0,1,0,0,0,1,0,0
75,167,66.87421072923401,24.0,-11,92,-155,-5,88,-92,15,122,-106,-204,-75,-163,0,0,0,1,0,1,0,0,1,0,0
31,171,82.88905762252112,28.4,-12,97,-121,-353,-324,-491,20,120,-82,-182,-86,-136,0,0,1,0,0,1,0,1,0,0,0
31,171,82.88252676022266,28.4,-35,115,-112,-475,-498,-598,-27,205,-24,-208,-79,-170,0,0,1,0,0,1,0,0,0,0,1
28,158,54.93866265427939,22.0,-6,101,-98,10,87,-126,43,105,-84,-186,-83,-156,0,1,0,0,1,0,0,0,1,0,0
75,167,66.87551431411275,24.0,-9,96,-99,-18,-15,-21,-61,87,-132,-102,-141,-137,0,0,0,1,0,1,1,0,0,0,0
28,158,54.93603672149105,22.0,-19,99,-75,-493,-515,-616,39,162,-140,-171,-72,-152,0,1,0,0,1,0,0,0,0,0,1
46,162,74.95580474934007,28.6,2,90,-49,-21,22,-16,7,107,-91,-164,-95,-155,1,0,0,0,1,0,1,0,0,0,0
46,162,74.9560371457386,28.6,2,93,-48,-16,24,-15,14,107,-92,-161,-95,-158,1,0,0,0,1,0,1,0,0,0,0
28,158,54.94217003209687,22.0,-29,28,-31,-202,-214,-341,38,107,-101,-162,-92,-168,0,1,0,0,1,0,1,0,0,0,0
46,162,74.95664818840378,28.6,-4,77,-30,-1,22,-32,6,96,-67,-149,-106,-161,1,0,0,0,1,0,1,0,0,0,0
46,162,74.9563716290589,28.6,-3,103,-95,20,48,-119,10,110,-88,-174,-103,-168,1,0,0,0,1,0,0,0,0,0,1
28,158,54.93730586431182,22.0,-8,93,-114,-491,-515,-614,28,146,-111,-169,-87,-173,0,1,0,0,1,0,0,0,0,0,1
46,162,74.95521479867163,28.6,-3,101,-75,5,69,-112,31,105,-83,-152,-100,-150,1,0,0,0,1,0,0,0,1,0,0
28,158,54.93852180022306,22.0,2,101,-96,6,87,-121,15,94,-93,-209,-88,-156,0,1,0,0,1,0,0,0,1,0,0
31,171,82.8849620153528,28.4,7,80,-121,7,74,-62,72,64,-55,-178,-59,-123,0,0,1,0,0,1,0,0,0,1,0
31,171,82.8890087536775,28.4,4,132,-157,52,85,-146,7,161,-78,-221,-56,-179,0,0,1,0,0,1,0,0,0,0,1
31,171,82.88446949272831,28.4,4,67,-58,-36,-23,-26,76,69,-105,-81,-141,-157,0,0,1,0,0,1,1,0,0,0,0
28,158,54.93760264655699,22.0,-3,99,-117,-492,-515,-616,31,127,-130,-172,-74,-173,0,1,0,0,1,0,0,0,0,0,1
46,162,74.95671912341281,28.6,-5,105,-100,8,87,-124,21,108,-99,-178,-90,-159,1,0,0,0,1,0,0,0,1,0,0
31,171,82.88852689498871,28.4,-8,88,-86,-348,-319,-473,-1,118,-83,-149,-127,-123,0,0,1,0,0,1,0,1,0,0,0
28,158,54.93471525360823,22.0,-15,40,-19,-20,-27,-26,29,107,-80,-148,-95,-165,0,1,0,0,1,0,1,0,0,0,0
28,158,54.9382779014994,22.0,-29,28,-26,-258,-324,-364,30,109,-101,-154,-94,-162,0,1,0,0,1,0,1,0,0,0,0
31,171,82.88581449030553,28.4,-17,112,-125,1,98,-116,52,214,-46,-207,-80,-168,0,0,1,0,0,1,0,0,0,0,1
46,162,74.95566726868974,28.6,1,90,-46,-20,23,-14,11,107,-94,-164,-95,-154,1,0,0,0,1,0,1,0,0,0,0
31,171,82.88281863712908,28.4,-41,130,-115,-484,-507,-607,108,267,-58,-201,-74,-169,0,0,1,0,0,1,0,0,0,0,1
31,171,82.88539765430609,28.4,-16,85,-103,-293,-281,-400,-8,111,-83,-179,-104,-99,0,0,1,0,0,1,0,1,0,0,0
28,158,54.941164282303504,22.0,-25,32,-24,-224,-225,-333,38,107,-102,-160,-93,-166,0,1,0,0,1,0,1,0,0,0,0
75,167,66.87410651198012,24.0,-16,89,-160,-7,89,-95,16,123,-106,-194,-77,-152,0,0,0,1,0,1,0,0,1,0,0
31,171,82.88559650164362,28.4,-34,95,-130,10,101,-122,41,82,-157,-203,-81,-149,0,0,1,0,0,1,0,0,0,0,1
46,162,74.95577602155838,28.6,-1,81,-100,5,65,-108,7,110,-96,-175,-102,-165,1,0,0,0,1,0,0,0,0,0,1
31,171,82.88483750563461,28.4,-39,85,-125,-4,95,-117,86,16,-130,-209,-81,-155,0,0,1,0,0,1,0,0,0,0,1
31,171,82.88459299952795,28.4,-11,75,-129,-17,89,-107,68,35,-121,-186,-69,-157,0,0,1,0,0,1,0,0,0,0,1
46,162,74.95953136392205,28.6,-12,100,-94,10,72,-112,42,45,-85,-188,-92,-156,1,0,0,0,1,0,0,0,0,1,0
46,162,74.95671435407624,28.6,0,106,-85,0,91,-122,26,106,-83,-184,-91,-159,1,0,0,0,1,0,0,0,1,0,0
46,162,74.95696510680133,28.6,20,133,-103,27,90,-68,4,116,-88,-179,-105,-174,1,0,0,0,1,0,0,0,0,0,1
31,171,82.882005706406,28.4,-44,112,-131,-488,-510,-610,26,115,-117,-232,-49,-160,0,0,1,0,0,1,0,0,0,0,1
31,171,82.88540591526453,28.4,-18,86,-116,-275,-291,-391,12,112,-84,-184,-90,-150,0,0,1,0,0,1,0,1,0,0,0
31,171,82.88377456169614,28.4,-7,95,-112,64,42,-123,23,123,-85,-172,-74,-156,0,0,1,0,0,1,0,0,1,0,0
75,167,66.87469336607408,24.0,-13,98,-129,4,-17,-20,7,0,-87,-241,-109,-122,0,0,0,1,0,1,1,0,0,0,0
31,171,82.88509681485911,28.4,-12,92,-134,-17,89,-131,25,117,-78,-178,-76,-156,0,0,1,0,0,1,0,0,1,0,0
31,171,82.88435463118172,28.4,4,71,-61,-17,-31,-23,61,54,-103,-92,-132,-171,0,0,1,0,0,1,1,0,0,0,0
46,162,74.95546032588568,28.6,-5,97,-85,4,72,-115,22,103,-83,-161,-102,-154,1,0,0,0,1,0,0,0,1,0,0
31,171,82.8876849498725,28.4,-8,95,-93,-389,-414,-532,-10,116,-77,-148,-136,-106,0,0,1,0,0,1,0,1,0,0,0
31,171,82.88379217207877,28.4,-1,66,-64,-25,-30,-26,68,61,-98,-89,-121,-158,0,0,1,0,0,1,1,0,0,0,0
46,162,74.95577867672466,28.6,0,96,-64,-13,20,-16,-13,105,-88,-189,-104,-141,1,0,0,0,1,0,1,0,0,0,0
46,162,74.95169628583189,28.6,-3,97,-70,-17,19,-17,-9,103,-66,-147,-96,-155,1,0,0,0,1,0,0,1,0,0,0
46,162,74.95537052041841,28.6,-1,95,-110,-1,84,-98,1,209,-131,-165,-74,-156,1,0,0,0,1,0,0,0,0,0,1
31,171,82.88399181298962,28.4,-1,66,-66,-25,-32,-26,62,55,-103,-93,-131,-164,0,0,1,0,0,1,1,0,0,0,0
31,171,82.88588484901275,28.4,-7,94,-122,2,90,-139,33,125,-75,-168,-68,-158,0,0,1,0,0,1,0,0,1,0,0
46,162,74.95629012256761,28.6,-7,61,-54,-10,13,-36,-3,92,-76,-167,-108,-173,1,0,0,0,1,0,1,0,0,0,0
75,167,66.87437471333986,24.0,-13,93,-157,-5,90,-92,14,121,-108,-215,-77,-172,0,0,0,1,0,1,0,0,1,0,0
46,162,74.95578719918743,28.6,0,91,-52,-21,21,-17,11,108,-88,-164,-92,-157,1,0,0,0,1,0,1,0,0,0,0
31,171,82.88703704468783,28.4,-11,123,-124,-14,98,-125,-3,73,-135,-215,-80,-174,0,0,1,0,0,1,0,0,0,0,1
46,162,74.95762293788398,28.6,-17,118,-92,-4,98,-116,58,185,-87,-151,-107,-160,1,0,0,0,1,0,0,0,0,0,1
31,171,82.88315150774619,28.4,-6,90,-119,10,96,-86,26,123,-89,-167,-74,-154,0,0,1,0,0,1,0,0,1,0,0
28,158,54.941003301631746,22.0,-28,29,-32,-234,-232,-339,38,107,-102,-160,-93,-166,0,1,0,0,1,0,1,0,0,0,0
46,162,74.95617012017095,28.6,1,102,-69,-9,22,-12,-13,104,-91,-153,-101,-146,1,0,0,0,1,0,1,0,0,0,0
31,171,82.8853035711298,28.4,-13,85,-117,7,91,-128,51,187,-96,-214,-69,-150,0,0,1,0,0,1,0,0,0,0,1
46,162,74.95257043906778,28.6,4,109,-94,0,26,-26,7,145,-61,-184,-73,-143,1,0,0,0,1,0,0,1,0,0,0
46,162,74.95507981671771,28.6,3,92,-86,-21,71,-91,10,108,-89,-170,-109,-161,1,0,0,0,1,0,0,0,0,0,1
46,162,74.95534947285421,28.6,-6,101,-69,-5,67,-122,18,102,-65,-152,-98,-151,1,0,0,0,1,0,0,0,1,0,0
46,162,74.95593238133576,28.6,1,92,-50,-18,22,-16,10,108,-90,-161,-94,-159,1,0,0,0,1,0,1,0,0,0,0
31,171,82.887622518536,28.4,-3,108,-142,112,97,-112,8,145,-69,-220,-78,-170,0,0,1,0,0,1,0,0,0,0,1
46,162,74.95310415436127,28.6,-12,116,-134,9,34,-27,23,108,-81,-228,-74,-156,1,0,0,0,1,0,0,0,0,1,0
46,162,74.95644005905498,28.6,-2,87,-92,3,84,-112,8,107,-97,-177,-89,-160,1,0,0,0,1,0,0,0,0,0,1
31,171,82.88586224597384,28.4,11,97,-118,6,99,-117,26,126,-89,-177,-68,-169,0,0,1,0,0,1,0,0,1,0,0
28,158,54.93885167099789,22.0,-2,101,-100,12,87,-126,6,105,-83,-190,-85,-161,0,1,0,0,1,0,0,0,1,0,0
28,158,54.938602507161676,22.0,11,121,-135,-492,-516,-616,25,148,-121,-151,-64,-169,0,1,0,0,1,0,0,0,0,0,1
31,171,82.88604969847317,28.4,-6,94,-120,5,90,-137,28,118,-85,-173,-77,-163,0,0,1,0,0,1,0,0,1,0,0
31,171,82.88473666090509,28.4,11,71,-64,-16,-32,-23,80,73,-105,-93,-130,-181,0,0,1,0,0,1,1,0,0,0,0
31,171,82.88947280911678,28.4,-8,97,-92,-347,-322,-494,-8,118,-85,-134,-114,-107,0,0,1,0,0,1,0,1,0,0,0
46,162,74.9556761719625,28.6,-1,86,-46,-21,21,-19,10,108,-91,-167,-92,-158,1,0,0,0,1,0,1,0,0,0,0
31,171,82.8859891914246,28.4,7,72,-58,-17,9,-23,65,58,-104,-100,-119,-184,0,0,1,0,0,1,1,0,0,0,0
31,171,82.8850654646783,28.4,-16,67,-102,-268,-284,-384,-6,107,-83,-137,-111,-124,0,0,1,0,0,1,0,1,0,0,0
46,162,74.95649907575387,28.6,-2,103,-94,-5,85,-126,1,104,-73,-180,-89,-158,1,0,0,0,1,0,0,0,1,0,0
75,167,66.87446303571745,24.0,-14,92,-155,-10,90,-94,18,123,-108,-158,-93,-140,0,0,0,1,0,1,0,0,1,0,0
46,162,74.95752790723346,28.6,12,89,-16,12,28,-29,22,99,-63,-143,-105,-152,1,0,0,0,1,0,1,0,0,0,0
31,171,82.88477313920323,28.4,-8,95,-110,32,74,-123,25,123,-85,-162,-73,-164,0,0,1,0,0,1,0,0,1,0,0
31,171,82.88701098996701,28.4,-3,114,-101,47,87,-124,8,133,-92,-192,-74,-175,0,0,1,0,0,1,0,0,0,0,1
31,171,82.88518584035208,28.4,-9,91,-131,-18,89,-132,29,124,-73,-166,-70,-158,0,0,1,0,0,1,0,0,1,0,0
31,171,82.8855942966699,28.4,6,73,-60,-32,-1,-25,75,68,-146,-99,-120,-187,0,0,1,0,0,1,1,0,0,0,0
28,158,54.93648613972104,22.0,-4,110,-143,-400,-416,-514,-146,180,-97,-170,-62,-172,0,1,0,0,1,0,0,0,0,0,1
31,171,82.88427811763535,28.4,4,70,-61,-22,-26,-22,62,54,-103,-95,-130,-166,0,0,1,0,0,1,1,0,0,0,0
28,158,54.937588301711635,22.0,-7,112,-105,-489,-512,-612,45,188,-115,-167,-83,-175,0,1,0,0,1,0,0,0,0,0,1
28,158,54.93814212217716,22.0,0,106,-120,-383,-446,-547,16,133,-121,-180,-75,-181,0,1,0,0,1,0,0,0,0,0,1
31,171,82.8852914843871,28.4,-19,84,-114,11,87,-127,31,253,-22,-205,-86,-174,0,0,1,0,0,1,0,0,0,0,1
46,162,74.9549012273248,28.6,9,139,-116,3,46,-74,3,112,-85,-168,-92,-171,1,0,0,0,1,0,0,0,0,0,1
31,171,82.8845416386811,28.4,5,66,-58,-35,-23,-26,69,62,-110,-90,-138,-166,0,0,1,0,0,1,1,0,0,0,0
28,158,54.934524863373035,22.0,-18,35,-24,-25,-29,-28,30,107,-80,-146,-95,-165,0,1,0,0,1,0,1,0,0,0,0
28,158,54.935808579092075,22.0,-12,102,-94,-493,-517,-617,25,112,-97,-190,-79,-159,0,1,0,0,1,0,0,0,1,0,0
28,158,54.93884346792277,22.0,-6,100,-99,6,82,-131,40,104,-86,-190,-88,-162,0,1,0,0,1,0,0,0,1,0,0
31,171,82.88586167217782,28.4,18,58,-133,4,84,-64,33,115,-60,-159,-69,-146,0,0,1,0,0,1,0,0,0,1,0
46,162,74.95651292701722,28.6,-8,102,-104,5,87,-126,23,109,-96,-183,-92,-150,1,0,0,0,1,0,0,0,1,0,0
46,162,74.95940676180923,28.6,-10,99,-91,18,87,-100,25,100,-68,-193,-96,-159,1,0,0,0,1,0,0,0,0,1,0
31,171,82.8857666289287,28.4,-50,47,-145,-8,123,-154,29,194,-80,-226,-50,-174,0,0,1,0,0,1,0,0,0,0,1
31,171,82.88232076852582,28.4,24,103,-111,-49,-5,-36,75,68,-68,-88,-98,-146,0,0,1,0,0,1,0,0,0,1,0
31,171,82.88738945574383,28.4,-11,84,-160,-343,-319,-457,-14,118,-84,-205,-73,-151,0,0,1,0,0,1,0,1,0,0,0
75,167,66.8743630990783,24.0,-10,93,-149,-8,89,-97,19,126,-102,-190,-74,-151,0,0,0,1,0,1,0,0,1,0,0
28,158,54.934408694282595,22.0,-19,34,-23,-33,-30,-32,29,107,-81,-153,-93,-162,0,1,0,0,1,0,1,0,0,0,0
31,171,82.88464734622801,28.4,-7,95,-115,16,88,-121,24,124,-82,-169,-92,-118,0,0,1,0,0,1,0,0,1,0,0
31,171,82.88572468192798,28.4,-10,92,-123,4,89,-139,30,122,-81,-171,-71,-156,0,0,1,0,0,1,0,0,1,0,0
75,167,66.87838604056964,24.0,25,83,-141,-40,111,-119,-11,104,-156,-226,-105,-146,0,0,0,1,0,1,0,0,0,0,1
46,162,74.95445072349672,28.6,-8,101,-65,3,61,-110,23,105,-87,-156,-97,-156,1,0,0,0,1,0,0,0,1,0,0
31,171,82.88713785460335,28.4,-4,94,-92,-484,-506,-607,7,121,-93,-126,-118,-111,0,0,1,0,0,1,0,1,0,0,0
28,158,54.942285056922195,22.0,-23,35,-22,-177,-200,-322,39,107,-102,-163,-92,-170,0,1,0,0,1,0,1,0,0,0,0
46,162,74.95647400323449,28.6,-7,69,-41,-6,18,-35,3,95,-71,-155,-107,-166,1,0,0,0,1,0,1,0,0,0,0
31,171,82.88616552549257,28.4,-3,99,-118,7,93,-135,29,118,-84,-183,-77,-159,0,0,1,0,0,1,0,0,1,0,0
28,158,54.94141416131224,22.0,8,84,-125,1,66,-102,12,99,-79,-225,-110,-165,0,1,0,0,1,0,0,0,0,1,0
46,162,74.9563546226272,28.6,-3,80,-88,0,51,-130,48,100,-97,-167,-86,-181,1,0,0,0,1,0,0,0,0,0,1
28,158,54.93795317030997,22.0,5,94,-123,-492,-516,-616,43,119,-146,-179,-82,-171,0,1,0,0,1,0,0,0,0,0,1
46,162,74.95509897512322,28.6,12,141,-106,-3,64,-89,9,182,-76,-169,-50,-149,1,0,0,0,1,0,0,0,0,0,1
46,162,74.95454798526002,28.6,-4,98,-82,10,74,-94,14,102,-88,-158,-104,-158,1,0,0,0,1,0,0,0,1,0,0
31,171,82.88441333222536,28.4,-3,95,-111,19,89,-109,19,125,-88,-169,-71,-158,0,0,1,0,0,1,0,0,1,0,0
31,171,82.88415348441538,28.4,-1,65,-61,-40,-25,-27,73,67,-107,-81,-139,-157,0,0,1,0,0,1,1,0,0,0,0
75,167,66.87521097003405,24.0,-13,94,-92,-22,-15,-22,-65,85,-129,-101,-140,-136,0,0,0,1,0,1,1,0,0,0,0
46,162,74.96053883123321,28.6,-2,106,-96,5,90,-107,15,105,-68,-150,-93,-159,1,0,0,0,1,0,0,1,0,0,0
46,162,74.95652794927523,28.6,-12,116,-86,-9,99,-114,-145,135,26,-162,-86,-149,1,0,0,0,1,0,0,0,0,0,1
46,162,74.95622789712995,28.6,-3,103,-100,8,78,-121,19,107,-95,-176,-90,-159,1,0,0,0,1,0,0,0,1,0,0
75,167,66.87412281161001,24.0,-11,92,-154,-6,86,-91,15,122,-108,-206,-77,-166,0,0,0,1,0,1,0,0,1,0,0
46,162,74.95520668908425,28.6,-5,98,-82,2,69,-115,28,104,-83,-157,-98,-150,1,0,0,0,1,0,0,0,1,0,0
28,158,54.941492603508024,22.0,-30,28,-19,-273,-375,-458,27,109,-87,-150,-95,-172,0,1,0,0,1,0,1,0,0,0,0
46,162,74.95585871551444,28.6,-2,94,-59,-18,18,-18,4,101,-87,-166,-93,-158,1,0,0,0,1,0,1,0,0,0,0
46,162,74.95667401133421,28.6,-5,76,-33,-2,22,-33,6,96,-67,-150,-106,-162,1,0,0,0,1,0,1,0,0,0,0
31,171,82.8862447615926,28.4,-42,60,-137,3,111,-151,-22,178,-132,-226,-97,-156,0,0,1,0,0,1,0,0,0,0,1
46,162,74.95742542632581,28.6,10,87,-13,12,30,-28,20,98,-61,-146,-107,-153,1,0,0,0,1,0,1,0,0,0,0
28,158,54.941172490094615,22.0,-23,27,-24,-225,-208,-322,38,107,-103,-161,-91,-169,0,1,0,0,1,0,1,0,0,0,0
31,171,82.88383892361173,28.4,-5,96,-112,58,48,-119,20,123,-84,-164,-76,-153,0,0,1,0,0,1,0,0,1,0,0
31,171,82.88477935953162,28.4,-22,87,-157,-268,-288,-384,-5,108,-84,-184,-90,-111,0,0,1,0,0,1,0,0,0,1,0
31,171,82.88613321542809,28.4,-8,97,-126,1,91,-141,31,121,-82,-177,-76,-154,0,0,1,0,0,1,0,0,1,0,0
31,171,82.88499694012532,28.4,3,70,-62,-35,-6,-25,73,66,-97,-91,-114,-179,0,0,1,0,0,1,1,0,0,0,0
46,162,74.9550881069797,28.6,5,108,-109,19,89,-79,58,242,-151,-143,-56,-154,1,0,0,0,1,0,0,0,0,0,1
31,171,82.88893399480602,28.4,-14,59,-131,17,95,-187,6,121,-92,-223,-70,-174,0,0,1,0,0,1,0,0,0,0,1
31,171,82.88669246875185,28.4,-1,85,-134,-13,86,-76,0,108,-68,-151,-67,-172,0,0,1,0,0,1,0,0,0,1,0
28,158,54.93879452795086,22.0,-25,26,-21,-228,-271,-328,38,108,-102,-162,-90,-169,0,1,0,0,1,0,1,0,0,0,0
31,171,82.88562527002361,28.4,-20,122,-148,-446,-475,-575,293,164,-231,-120,-82,-188,0,0,1,0,0,1,0,0,0,0,1
28,158,54.94122811750785,22.0,-34,29,-27,-280,-377,-458,28,109,-86,-148,-93,-170,0,1,0,0,1,0,1,0,0,0,0
46,162,74.95583519636749,28.6,3,92,-47,-19,23,-14,7,107,-91,-164,-95,-156,1,0,0,0,1,0,1,0,0,0,0
28,158,54.93464728508864,22.0,-16,35,-21,-31,-28,-32,27,105,-82,-148,-93,-161,0,1,0,0,1,0,1,0,0,0,0
75,167,66.87458362366763,24.0,31,138,-166,63,158,37,-4,123,-118,-204,-90,-166,0,0,0,1,0,1,0,0,0,0,1
28,158,54.93787625013916,22.0,-4,125,-118,-493,-515,-616,81,104,-104,-172,-61,-156,0,1,0,0,1,0,0,0,0,0,1
28,158,54.93836625212445,22.0,-4,100,-94,1,84,-124,9,82,-101,-197,-86,-160,0,1,0,0,1,0,0,0,1,0,0
46,162,74.9565442181376,28.6,-6,69,-47,-9,17,-36,2,97,-73,-158,-106,-168,1,0,0,0,1,0,1,0,0,0,0
46,162,74.95863451365537,28.6,-14,90,-94,12,84,-96,30,104,-70,-194,-99,-155,1,0,0,0,1,0,0,0,0,1,0
46,162,74.95727049518244,28.6,-15,99,-84,-5,87,-119,30,101,-71,-136,-118,-152,1,0,0,0,1,0,0,0,0,0,1
31,171,82.88419301750706,28.4,6,107,-109,-242,-304,-410,1,133,-88,-221,-69,-185,0,0,1,0,0,1,0,0,0,0,1
46,162,74.9577737360823,28.6,3,138,-77,-9,134,-91,-161,163,14,-153,-93,-157,1,0,0,0,1,0,0,0,0,0,1
46,162,74.95605579601009,28.6,-9,95,-96,0,79,-120,15,104,-90,-159,-106,-160,1,0,0,0,1,0,0,0,1,0,0
28,158,54.94015663815449,22.0,-29,32,-34,-271,-263,-354,30,110,-100,-152,-93,-162,0,1,0,0,1,0,1,0,0,0,0
31,171,82.88122297161107,28.4,-2,105,-113,-40,-12,-26,56,49,-76,-106,-107,-177,0,0,1,0,0,1,0,0,0,1,0
28,158,54.93687311572337,22.0,-20,85,-130,-479,-501,-601,17,151,-152,-169,-96,-170,0,1,0,0,1,0,0,0,0,0,1
28,158,54.9383476580953,22.0,-4,100,-99,2,84,-123,29,106,-88,-193,-83,-162,0,1,0,0,1,0,0,0,1,0,0
31,171,82.88549215942645,28.4,0,65,-65,-21,5,-26,67,60,-102,-97,-116,-180,0,0,1,0,0,1,1,0,0,0,0
28,158,54.93844775828421,22.0,-3,102,-92,3,88,-121,11,84,-100,-196,-86,-160,0,1,0,0,1,0,0,0,1,0,0
46,162,74.95532151873829,28.6,14,121,-93,8,80,-75,-5,151,-86,-162,-72,-165,1,0,0,0,1,0,0,0,0,0,1
31,171,82.88458784976167,28.4,-18,94,-123,28,88,-125,11,130,-95,-174,-97,-113,0,0,1,0,0,1,0,0,1,0,0
46,162,74.95715458584344,28.6,-4,97,-93,-15,81,-112,21,85,-120,-145,-112,-170,1,0,0,0,1,0,0,0,0,0,1
28,158,54.9316476091131,22.0,-5,102,-89,0,-11,2,16,111,-114,-172,-105,-131,0,1,0,0,1,0,0,1,0,0,0
28,158,54.93712218592174,22.0,-12,92,-122,-416,-429,-530,31,126,-122,-174,-98,-177,0,1,0,0,1,0,0,0,0,0,1
28,158,54.938054821777065,22.0,0,83,-146,-9,59,-55,23,110,-115,-218,-110,-147,0,1,0,0,1,0,0,1,0,0,0
46,162,74.95594252766992,28.6,-5,101,-85,-5,79,-125,27,107,-86,-184,-85,-160,1,0,0,0,1,0,0,0,1,0,0
31,171,82.88209185715374,28.4,-23,91,-150,-461,-480,-579,8,184,-89,-221,-43,-168,0,0,1,0,0,1,0,0,0,0,1
28,158,54.93819767977133,22.0,-7,99,-100,4,83,-125,36,109,-82,-192,-80,-157,0,1,0,0,1,0,0,0,1,0,0
31,171,82.88622008333348,28.4,31,82,-141,-14,84,-64,78,70,-52,-200,-32,-150,0,0,1,0,0,1,0,0,0,1,0
28,158,54.93538045751448,22.0,-12,47,-13,-7,-14,-18,-11,75,-99,-142,-96,-175,0,1,0,0,1,0,1,0,0,0,0
46,162,74.95575007868213,28.6,-9,94,-96,0,72,-121,18,103,-91,-160,-106,-156,1,0,0,0,1,0,0,0,1,0,0
75,167,66.8732677406153,24.0,-14,83,-155,-11,46,-40,-18,115,-94,-241,-82,-161,0,0,0,1,0,1,0,0,0,1,0
31,171,82.8859681464066,28.4,-5,94,-122,6,90,-136,30,119,-85,-178,-75,-161,0,0,1,0,0,1,0,0,1,0,0
46,162,74.95499984665167,28.6,-2,100,-71,6,68,-110,33,105,-80,-149,-98,-148,1,0,0,0,1,0,0,0,1,0,0
46,162,74.95556764340557,28.6,-10,94,-96,0,71,-120,21,104,-89,-157,-103,-155,1,0,0,0,1,0,0,0,1,0,0
28,158,54.94106099373571,22.0,-32,20,-29,-281,-374,-456,27,109,-86,-153,-93,-169,0,1,0,0,1,0,1,0,0,0,0
31,171,82.88508625693855,28.4,-29,89,-133,5,88,-144,36,120,-72,-169,-75,-137,0,0,1,0,0,1,0,0,1,0,0
28,158,54.93718133288653,22.0,-14,98,-115,-493,-516,-615,1,128,-131,-172,-85,-176,0,1,0,0,1,0,0,0,0,0,1
46,162,74.9547046189582,28.6,-8,101,-61,2,62,-116,24,105,-86,-157,-95,-154,1,0,0,0,1,0,0,0,1,0,0
28,158,54.93585305006476,22.0,-12,136,-127,-439,-427,-519,-118,184,-75,-170,-48,-177,0,1,0,0,1,0,0,0,0,0,1
46,162,74.95739505458054,28.6,-18,115,-95,-2,86,-121,49,156,-80,-152,-103,-161,1,0,0,0,1,0,0,0,0,0,1
31,171,82.88381789179898,28.4,-5,93,-114,62,41,-121,26,124,-85,-166,-72,-166,0,0,1,0,0,1,0,0,1,0,0
28,158,54.940435531802365,22.0,-26,26,-31,-250,-228,-330,38,107,-102,-161,-91,-168,0,1,0,0,1,0,1,0,0,0,0
31,171,82.89063062942786,28.4,-11,94,-141,22,98,-129,11,117,-78,-160,-78,-169,0,0,1,0,0,1,0,0,0,1,0
46,162,74.95576598227986,28.6,-1,90,-49,-20,22,-17,12,108,-89,-164,-93,-157,1,0,0,0,1,0,1,0,0,0,0
46,162,74.95547710403169,28.6,-8,95,-85,-5,70,-121,21,100,-66,-157,-102,-154,1,0,0,0,1,0,0,0,1,0,0
46,162,74.9559836047629,28.6,-11,93,-101,0,77,-123,15,103,-92,-161,-103,-158,1,0,0,0,1,0,0,0,1,0,0
75,167,66.87437914600014,24.0,7,107,-135,-12,49,-87,26,120,-141,-201,-94,-155,0,0,0,1,0,1,0,0,0,0,1
31,171,82.88542311111777,28.4,2,67,-63,-19,6,-25,72,65,-98,-91,-117,-166,0,0,1,0,0,1,1,0,0,0,0
46,162,74.9565400461514,28.6,-6,70,-39,-6,19,-35,3,96,-71,-154,-107,-165,1,0,0,0,1,0,1,0,0,0,0
46,162,74.95713108683218,28.6,25,104,-75,22,65,-50,16,103,-68,-187,-98,-159,1,0,0,0,1,0,0,1,0,0,0
46,162,74.95662220324269,28.6,-9,90,-93,-10,84,-114,50,62,-108,-169,-103,-150,1,0,0,0,1,0,0,0,0,0,1
46,162,74.95262985350004,28.6,2,112,-100,-12,93,-20,11,110,-85,-172,-96,-178,1,0,0,0,1,0,0,0,0,0,1
28,158,54.93886961047713,22.0,-4,102,-99,6,83,-129,41,102,-87,-193,-89,-160,0,1,0,0,1,0,0,0,1,0,0
28,158,54.93457558633553,22.0,-17,37,-15,-3,-22,-20,26,108,-81,-147,-96,-163,0,1,0,0,1,0,1,0,0,0,0
31,171,82.88502187717036,28.4,3,70,-61,-35,-6,-25,73,66,-98,-91,-116,-179,0,0,1,0,0,1,1,0,0,0,0
31,171,82.88559460278908,28.4,1,69,-64,-23,7,-26,90,83,-138,-93,-113,-178,0,0,1,0,0,1,1,0,0,0,0
31,171,82.8862934327622,28.4,-7,114,-138,-289,-300,-406,-6,116,-82,-187,-73,-128,0,0,1,0,0,1,0,1,0,0,0
31,171,82.88424437158076,28.4,2,70,-62,-23,-28,-25,61,54,-103,-96,-127,-167,0,0,1,0,0,1,1,0,0,0,0
31,171,82.88488546657014,28.4,-11,93,-121,20,89,-121,24,124,-82,-164,-74,-153,0,0,1,0,0,1,0,0,1,0,0
28,158,54.93861029481768,22.0,-1,102,-94,2,87,-122,14,87,-96,-197,-88,-162,0,1,0,0,1,0,0,0,1,0,0
31,171,82.88655588845864,28.4,-5,85,-118,-75,-123,-299,16,126,-104,-222,-86,-174,0,0,1,0,0,1,0,0,0,0,1
31,171,82.8857105272144,28.4,-12,95,-124,5,90,-139,36,125,-77,-165,-72,-148,0,0,1,0,0,1,0,0,1,0,0
31,171,82.88800976930663,28.4,-13,79,-125,44,42,-192,22,124,-104,-197,-71,-169,0,0,1,0,0,1,0,0,0,0,1
28,158,54.932267098707655,22.0,-15,106,-168,24,0,-1,1,108,-125,-307,-116,-119,0,1,0,0,1,0,0,1,0,0,0
31,171,82.88416973352214,28.4,4,70,-60,-21,-25,-21,66,59,-100,-92,-126,-164,0,0,1,0,0,1,1,0,0,0,0
46,162,74.95661326323015,28.6,-10,95,-85,1,84,-121,-46,242,17,-146,-108,-161,1,0,0,0,1,0,0,0,0,0,1
28,158,54.941269665697746,22.0,-7,101,-106,-9,87,-100,24,109,-111,-185,-87,-148,0,1,0,0,1,0,0,1,0,0,0
75,167,66.87591397143784,24.0,-13,96,-99,-6,-9,-21,-67,83,-123,-96,-140,-146,0,0,0,1,0,1,1,0,0,0,0
75,167,66.87498863574466,24.0,-16,97,-95,-12,-22,-21,-68,83,-103,-126,-151,-134,0,0,0,1,0,1,1,0,0,0,0
46,162,74.95478530185044,28.6,-1,108,-85,22,91,-83,10,108,-102,-179,-89,-163,1,0,0,0,1,0,0,0,1,0,0
31,171,82.88399119086061,28.4,-29,71,-150,-323,-304,-397,-10,106,-66,-223,-93,-155,0,0,1,0,0,1,0,0,0,1,0
28,158,54.93634593926729,22.0,-5,103,-97,-493,-516,-616,-17,58,-124,-200,-87,-163,0,1,0,0,1,0,0,0,1,0,0
46,162,74.9559704103694,28.6,1,92,-50,-19,23,-17,10,108,-91,-163,-93,-158,1,0,0,0,1,0,1,0,0,0,0
28,158,54.93753155736005,22.0,-13,99,-123,-491,-515,-614,15,58,-130,-177,-82,-175,0,1,0,0,1,0,0,0,0,0,1
28,158,54.93836978299144,22.0,11,121,-112,-493,-516,-616,33,142,-111,-155,-63,-171,0,1,0,0,1,0,0,0,0,0,1
28,158,54.939693668035595,22.0,0,72,-162,-266,-305,-391,-481,-487,-590,-264,-107,-143,0,1,0,0,1,0,0,0,0,1,0
31,171,82.88106167013501,28.4,-6,86,-114,-57,-12,-31,63,55,-84,-96,-104,-198,0,0,1,0,0,1,0,0,0,1,0
75,167,66.87496317972247,24.0,-12,94,-94,4,-30,-22,-59,93,-120,-102,-119,-158,0,0,0,1,0,1,1,0,0,0,0
46,162,74.95772382832948,28.6,-16,108,-114,10,98,-121,5,113,-93,-195,-84,-170,1,0,0,0,1,0,0,0,0,0,1
75,167,66.87537354883104,24.0,-10,96,-99,-28,-15,-19,-60,88,-132,-96,-143,-141,0,0,0,1,0,1,1,0,0,0,0
31,171,82.88366166860293,28.4,-19,92,-116,-403,-469,-570,16,104,-97,-188,-76,-168,0,0,1,0,0,1,0,0,0,0,1
28,158,54.936605435523354,22.0,0,78,-108,-369,-452,-539,38,123,-139,-177,-57,-179,0,1,0,0,1,0,0,0,0,0,1
28,158,54.941639535114504,22.0,-26,33,-28,-192,-216,-327,39,107,-101,-161,-91,-170,0,1,0,0,1,0,1,0,0,0,0
46,162,74.95658100421812,28.6,-7,71,-39,-5,20,-35,3,95,-71,-154,-107,-165,1,0,0,0,1,0,1,0,0,0,0
31,171,82.88871555793897,28.4,-9,93,-94,-362,-351,-500,6,115,-85,-137,-125,-115,0,0,1,0,0,1,0,1,0,0,0
46,162,74.95646429140899,28.6,-7,67,-43,-7,17,-36,3,95,-72,-156,-107,-167,1,0,0,0,1,0,1,0,0,0,0
31,171,82.88726968313057,28.4,-34,109,-132,-40,-60,-269,22,120,-84,-206,-84,-160,0,0,1,0,0,1,0,0,0,0,1
28,158,54.9342080576541,22.0,-21,25,-18,-27,-24,-26,7,95,-80,-147,-94,-170,0,1,0,0,1,0,1,0,0,0,0
46,162,74.95664641119592,28.6,-4,106,-99,6,93,-118,23,108,-98,-178,-89,-160,1,0,0,0,1,0,0,0,1,0,0
28,158,54.937308189567176,22.0,2,84,-175,-5,65,-35,19,110,-122,-232,-96,-149,0,1,0,0,1,0,0,1,0,0,0
28,158,54.93575601347261,22.0,-31,62,-124,-293,-270,-343,-38,43,-136,-195,-93,-153,0,1,0,0,1,0,0,0,0,1,0
28,158,54.93739621108268,22.0,-2,97,-111,-437,-460,-560,27,125,-127,-181,-86,-174,0,1,0,0,1,0,0,0,0,0,1
31,171,82.88407733594241,28.4,2,70,-63,-17,-34,-25,61,54,-103,-96,-129,-164,0,0,1,0,0,1,1,0,0,0,0
46,162,74.9571123210286,28.6,-9,109,-92,2,84,-113,59,141,-59,-153,-96,-166,1,0,0,0,1,0,0,0,0,0,1
46,162,74.95734089697318,28.6,-16,100,-101,-2,87,-115,63,14,-145,-171,-106,-158,1,0,0,0,1,0,0,0,0,0,1
31,171,82.8839418717425,28.4,-15,103,-117,-257,-326,-445,-13,181,-65,-198,-61,-176,0,0,1,0,0,1,0,0,0,0,1
28,158,54.93867225048903,22.0,5,101,-97,3,86,-122,7,76,-101,-202,-81,-161,0,1,0,0,1,0,0,0,1,0,0
31,171,82.8858340117387,28.4,-12,92,-128,2,88,-141,32,118,-82,-178,-76,-157,0,0,1,0,0,1,0,0,1,0,0
28,158,54.93691887862725,22.0,-4,93,-118,-492,-516,-616,15,129,-127,-209,-76,-159,0,1,0,0,1,0,0,0,0,0,1
46,162,74.95412619076436,28.6,-9,102,-145,11,46,-34,24,101,-79,-246,-82,-165,1,0,0,0,1,0,0,0,0,1,0
31,171,82.88492429131142,28.4,2,70,-63,-34,-7,-25,73,66,-98,-91,-113,-179,0,0,1,0,0,1,1,0,0,0,0
28,158,54.93468973929947,22.0,-16,39,-20,-16,-26,-27,29,107,-80,-154,-93,-162,0,1,0,0,1,0,1,0,0,0,0
46,162,74.95664510587416,28.6,-5,106,-102,7,88,-124,22,108,-96,-184,-92,-150,1,0,0,0,1,0,0,0,1,0,0
46,162,74.95426924243309,28.6,-6,64,-96,7,-8,-90,47,49,-54,-171,-89,-142,1,0,0,0,1,0,0,0,0,1,0
46,162,74.95536459654039,28.6,-7,98,-89,2,68,-117,24,103,-86,-156,-100,-153,1,0,0,0,1,0,0,0,1,0,0
46,162,74.95589168817334,28.6,-12,91,-102,-1,71,-126,17,104,-88,-156,-102,-161,1,0,0,0,1,0,0,0,1,0,0
46,162,74.95669511460979,28.6,-5,68,-47,-8,17,-37,1,94,-75,-160,-109,-169,1,0,0,0,1,0,1,0,0,0,0
75,167,66.87319159325152,24.0,-2,90,-149,-6,68,-64,13,118,-125,-210,-93,-154,0,0,0,1,0,1,0,0,0,0,1
31,171,82.8870443690222,28.4,-1,85,-118,56,23,-174,9,118,-87,-215,-81,-175,0,0,1,0,0,1,0,0,0,0,1
46,162,74.95556373103446,28.6,-8,94,-132,7,62,-49,4,94,-80,-235,-92,-169,1,0,0,0,1,0,0,0,0,1,0
28,158,54.93524606454261,22.0,-3,95,-175,3,39,-12,17,102,-59,-278,-114,-159,0,1,0,0,1,0,0,0,0,1,0
75,167,66.8743796596711,24.0,-11,94,-157,-4,90,-92,14,121,-108,-196,-79,-156,0,0,0,1,0,1,0,0,1,0,0
28,158,54.939604837365,22.0,-26,28,-29,-258,-260,-339,38,107,-102,-164,-90,-171,0,1,0,0,1,0,1,0,0,0,0
28,158,54.938940439628006,22.0,-5,102,-100,11,88,-126,33,97,-91,-188,-86,-162,0,1,0,0,1,0,0,0,1,0,0
46,162,74.95403088496272,28.6,-2,101,-89,14,79,-82,16,108,-104,-180,-87,-167,1,0,0,0,1,0,0,0,1,0,0
46,162,74.9565621376058,28.6,-14,91,-90,-3,89,-115,46,105,-87,-181,-99,-157,1,0,0,0,1,0,0,0,0,0,1
28,158,54.9387653503253,22.0,-3,101,-97,6,86,-125,26,105,-87,-193,-88,-165,0,1,0,0,1,0,0,0,1,0,0
46,162,74.95607240045211,28.6,-15,92,-87,7,81,-116,24,225,-27,-154,-102,-156,1,0,0,0,1,0,0,0,0,0,1
28,158,54.93700270373169,22.0,-5,107,-126,36,91,-74,119,219,-230,-161,-48,-154,0,1,0,0,1,0,0,0,0,0,1
28,158,54.94226064012641,22.0,-23,35,-22,-178,-200,-322,39,107,-101,-162,-91,-170,0,1,0,0,1,0,1,0,0,0,0
31,171,82.8834982012061,28.4,10,56,-160,-474,-493,-592,97,135,-50,-222,-68,-163,0,0,1,0,0,1,0,0,0,0,1
75,167,66.87395515132654,24.0,-14,70,-163,-49,71,-105,-3,146,-112,-212,-88,-146,0,0,0,1,0,1,0,0,0,0,1
28,158,54.933346643046875,22.0,-6,97,-155,15,1,-11,7,108,-123,-232,-98,-145,0,1,0,0,1,0,0,1,0,0,0
46,162,74.95429678608294,28.6,-4,109,-95,-1,3,-66,31,53,-74,-192,-90,-149,1,0,0,0,1,0,0,0,0,1,0
31,171,82.88407056213123,28.4,0,67,-64,-23,-28,-24,63,55,-102,-95,-127,-167,0,0,1,0,0,1,1,0,0,0,0
75,167,66.87471708724873,24.0,-9,94,-149,-7,90,-98,16,123,-108,-183,-77,-156,0,0,0,1,0,1,0,0,1,0,0
31,171,82.8861191307924,28.4,6,71,-60,-17,18,-22,65,58,-105,-99,-124,-170,0,0,1,0,0,1,1,0,0,0,0
31,171,82.88567419983532,28.4,-8,96,-126,20,92,-131,49,120,-73,-179,-73,-146,0,0,1,0,0,1,0,0,1,0,0
46,162,74.95318174803177,28.6,-8,86,-87,1,10,-55,21,81,-87,-193,-92,-154,1,0,0,0,1,0,0,0,0,1,0
46,162,74.95612272730838,28.6,-12,93,-125,4,70,-56,11,84,-83,-229,-95,-168,1,0,0,0,1,0,0,0,0,1,0
46,162,74.95672564197739,28.6,-5,75,-36,-3,22,-32,3,94,-71,-154,-110,-166,1,0,0,0,1,0,1,0,0,0,0
28,158,54.9360048506123,22.0,-9,103,-91,-492,-514,-614,22,108,-101,-195,-83,-164,0,1,0,0,1,0,0,0,1,0,0
28,158,54.94126248422386,22.0,-29,34,-30,-254,-242,-354,38,108,-101,-154,-92,-165,0,1,0,0,1,0,1,0,0,0,0
31,171,82.88490327866421,28.4,0,66,-64,-36,-8,-28,67,60,-102,-98,-116,-180,0,0,1,0,0,1,1,0,0,0,0
28,158,54.938635474782075,22.0,-3,104,-97,8,89,-118,33,104,-84,-202,-92,-166,0,1,0,0,1,0,0,0,1,0,0
31,171,82.8833895845009,28.4,-1,96,-116,63,40,-111,23,124,-91,-172,-73,-163,0,0,1,0,0,1,0,0,1,0,0
31,171,82.88597707634086,28.4,6,73,-58,-20,10,-22,85,77,-142,-98,-120,-186,0,0,1,0,0,1,1,0,0,0,0
31,171,82.88452856183791,28.4,-11,77,-124,-273,-291,-433,19,128,-107,-189,-72,-170,0,0,1,0,0,1,0,0,0,0,1
46,162,74.95373372903141,28.6,6,109,-127,0,47,-20,-7,112,-62,-197,-82,-147,1,0,0,0,1,0,0,1,0,0,0
28,158,54.94239480386134,22.0,-29,30,-30,-202,-214,-344,38,107,-102,-162,-93,-168,0,1,0,0,1,0,1,0,0,0,0
31,171,82.88563401701045,28.4,0,66,-65,-21,5,-27,66,59,-102,-98,-117,-183,0,0,1,0,0,1,1,0,0,0,0
31,171,82.88274753072572,28.4,-17,81,-137,-489,-512,-612,33,130,-86,-181,-55,-157,0,0,1,0,0,1,0,0,0,0,1
31,171,82.88524826270353,28.4,-7,95,-121,29,88,-124,20,122,-82,-167,-78,-145,0,0,1,0,0,1,0,0,1,0,0
46,162,74.95437773938673,28.6,22,111,-64,17,43,-27,12,103,-64,-195,-86,-150,1,0,0,0,1,0,0,1,0,0,0
31,171,82.88464012764565,28.4,-8,94,-111,18,89,-121,23,124,-84,-169,-94,-118,0,0,1,0,0,1,0,0,1,0,0
28,158,54.935982489168396,22.0,-4,85,-77,-485,-507,-607,-89,193,-52,-177,-71,-171,0,1,0,0,1,0,0,0,0,0,1
28,158,54.9366573703594,22.0,-2,93,-102,-493,-516,-615,-73,247,-66,-168,-85,-170,0,1,0,0,1,0,0,0,0,0,1
46,162,74.95563742447769,28.6,-7,97,-88,4,74,-116,18,102,-86,-165,-103,-160,1,0,0,0,1,0,0,0,1,0,0
31,171,82.88278486944506,28.4,-36,136,-141,-490,-513,-613,-205,195,148,-210,-69,-177,0,0,1,0,0,1,0,0,0,0,1
28,158,54.941379771929746,22.0,-31,28,-30,-208,-227,-339,38,107,-101,-161,-93,-167,0,1,0,0,1,0,1,0,0,0,0
28,158,54.94122853375556,22.0,-34,28,-27,-280,-376,-458,28,109,-86,-148,-93,-169,0,1,0,0,1,0,1,0,0,0,0
31,171,82.8829017334772,28.4,-1,95,-112,66,45,-99,12,124,-93,-170,-70,-169,0,0,1,0,0,1,0,0,1,0,0
31,171,82.88402155898498,28.4,4,71,-62,-22,-29,-22,67,60,-99,-90,-132,-152,0,0,1,0,0,1,1,0,0,0,0
31,171,82.88730552823621,28.4,-9,82,-102,-297,-288,-428,0,115,-82,-157,-112,-109,0,0,1,0,0,1,0,1,0,0,0
46,162,74.95669946620808,28.6,-5,106,-96,5,93,-120,21,108,-97,-176,-89,-161,1,0,0,0,1,0,0,0,1,0,0
46,162,74.9558155375389,28.6,-7,93,-96,9,74,-106,13,106,-101,-180,-80,-173,1,0,0,0,1,0,0,0,0,0,1
31,171,82.8854238390552,28.4,1,66,-64,-19,6,-26,69,63,-100,-92,-118,-165,0,0,1,0,0,1,1,0,0,0,0
31,171,82.88405097312518,28.4,-1,67,-66,-25,-29,-25,62,55,-103,-94,-128,-166,0,0,1,0,0,1,1,0,0,0,0
31,171,82.88588248245306,28.4,7,71,-59,-17,9,-23,65,58,-105,-98,-124,-172,0,0,1,0,0,1,1,0,0,0,0
46,162,74.95692688283896,28.6,-1,87,-91,-22,86,-114,142,21,-130,-184,-83,-162,1,0,0,0,1,0,0,0,0,0,1
31,171,82.88581619261534,28.4,-6,92,-126,2,90,-138,29,122,-81,-176,-69,-157,0,0,1,0,0,1,0,0,1,0,0
31,171,82.88503335180002,28.4,0,66,-65,-32,-3,-27,66,59,-103,-96,-123,-167,0,0,1,0,0,1,1,0,0,0,0
75,167,66.8740185020786,24.0,-12,94,-97,-4,-10,-20,-61,87,-127,-191,-89,-128,0,0,0,1,0,1,1,0,0,0,0
46,162,74.9559593261409,28.6,-11,96,-102,-2,73,-126,14,104,-89,-163,-99,-158,1,0,0,0,1,0,0,0,1,0,0
28,158,54.93645934405097,22.0,-8,106,-94,-492,-516,-617,20,106,-103,-201,-91,-171,0,1,0,0,1,0,0,0,1,0,0
31,171,82.8841628217667,28.4,-25,63,-119,-4,86,-125,45,34,-126,-227,-72,-138,0,0,1,0,0,1,0,0,0,0,1
28,158,54.93862297052017,22.0,0,102,-95,-3,87,-122,34,99,-64,-192,-91,-158,0,1,0,0,1,0,0,0,1,0,0
31,171,82.88661221579181,28.4,-7,121,-123,-8,90,-130,60,198,-96,-223,-69,-172,0,0,1,0,0,1,0,0,0,0,1
31,171,82.88385828851953,28.4,2,69,-64,-23,-32,-24,68,61,-99,-87,-124,-157,0,0,1,0,0,1,1,0,0,0,0
46,162,74.95648879713656,28.6,-7,102,-103,5,85,-124,23,108,-96,-181,-89,-161,1,0,0,0,1,0,0,0,1,0,0
28,158,54.93623512241657,22.0,-6,102,-96,-491,-513,-612,18,107,-104,-201,-89,-169,0,1,0,0,1,0,0,0,1,0,0
31,171,82.88508767163569,28.4,-8,96,-111,19,90,-120,27,123,-83,-165,-76,-160,0,0,1,0,0,1,0,0,1,0,0
46,162,74.95810475737231,28.6,-7,94,-98,-2,70,-91,32,56,-69,-201,-98,-153,1,0,0,0,1,0,0,0,0,1,0
28,158,54.93862197560976,22.0,-5,101,-103,13,85,-126,40,107,-81,-190,-82,-154,0,1,0,0,1,0,0,0,1,0,0
31,171,82.88484433284059,28.4,-7,93,-113,17,88,-125,25,124,-80,-170,-100,-111,0,0,1,0,0,1,0,0,1,0,0
28,158,54.94114087769858,22.0,5,80,-145,-490,-513,-613,18,102,-56,-246,-110,-167,0,1,0,0,1,0,0,0,0,1,0
46,162,74.95578747710088,28.6,-12,92,-98,-1,77,-122,19,105,-88,-153,-101,-155,1,0,0,0,1,0,0,0,1,0,0
28,158,54.93700604641339,22.0,-16,118,-111,-493,-515,-615,-11,230,-115,-172,-82,-170,0,1,0,0,1,0,0,0,0,0,1
31,171,82.88397080586583,28.4,-9,72,-124,-395,-467,-570,-58,45,-136,-213,-77,-183,0,0,1,0,0,1,0,0,0,0,1
31,171,82.88558214160463,28.4,-13,94,-127,19,89,-132,45,115,-77,-184,-77,-156,0,0,1,0,0,1,0,0,1,0,0
28,158,54.93549832557933,22.0,-8,103,-90,16,76,-64,-349,-399,-501,-198,-83,-164,0,1,0,0,1,0,0,0,1,0,0
46,162,74.95681753223359,28.6,-1,82,-23,5,25,-30,12,97,-63,-146,-106,-155,1,0,0,0,1,0,1,0,0,0,0
28,158,54.937318101392655,22.0,-24,28,-25,-257,-310,-331,27,106,-89,-151,-96,-169,0,1,0,0,1,0,1,0,0,0,0
28,158,54.93585142391144,22.0,-23,26,-20,-252,-354,-339,37,108,-102,-161,-90,-168,0,1,0,0,1,0,1,0,0,0,0
28,158,54.93634634604757,22.0,2,66,-115,-484,-506,-606,57,126,-106,-163,-47,-161,0,1,0,0,1,0,0,0,0,0,1
46,162,74.95582892158079,28.6,0,89,-49,-21,21,-20,11,108,-92,-165,-95,-151,1,0,0,0,1,0,1,0,0,0,0
46,162,74.95103017364457,28.6,-59,45,-132,-121,-96,-159,46,48,-52,-177,-88,-148,1,0,0,0,1,0,0,0,0,1,0
31,171,82.8843525775771,28.4,4,70,-61,-24,-31,-24,63,55,-93,-92,-134,-172,0,0,1,0,0,1,1,0,0,0,0
28,158,54.942531649805034,22.0,-32,24,-31,-197,-205,-344,38,107,-101,-158,-92,-165,0,1,0,0,1,0,1,0,0,0,0
31,171,82.88598339139288,28.4,-8,97,-123,0,91,-138,27,118,-84,-177,-77,-157,0,0,1,0,0,1,0,0,1,0,0
31,171,82.88198476909454,28.4,2,118,-120,-40,51,-67,10,126,-89,-193,-73,-191,0,0,1,0,0,1,0,0,0,0,1
31,171,82.88507324461989,28.4,-11,96,-114,17,90,-125,31,122,-84,-161,-85,-136,0,0,1,0,0,1,0,0,1,0,0
28,158,54.930425007964025,22.0,-10,85,-112,9,-3,-5,15,110,-117,-204,-39,-110,0,1,0,0,1,0,0,1,0,0,0
28,158,54.93710220711426,22.0,1,94,-69,-15,-15,-20,32,108,-89,-169,-87,-167,0,1,0,0,1,0,1,0,0,0,0
31,171,82.88311535690308,28.4,-23,83,-110,-399,-474,-575,-1,162,-57,-198,-72,-177,0,0,1,0,0,1,0,0,0,0,1
31,171,82.88560509875727,28.4,19,146,-117,-491,-514,-614,8,141,-77,-206,-53,-186,0,0,1,0,0,1,0,0,0,0,1
28,158,54.93837715403119,22.0,15,122,-135,-493,-516,-616,21,150,-129,-171,-51,-168,0,1,0,0,1,0,0,0,0,0,1
31,171,82.88568694884073,28.4,-9,92,-125,5,89,-137,32,123,-80,-182,-74,-157,0,0,1,0,0,1,0,0,1,0,0
28,158,54.94153875378762,22.0,-26,28,-22,-267,-371,-452,27,109,-88,-150,-94,-171,0,1,0,0,1,0,1,0,0,0,0
31,171,82.88588901905206,28.4,-6,96,-119,6,92,-133,30,119,-84,-178,-78,-160,0,0,1,0,0,1,0,0,1,0,0
31,171,82.89049167174093,28.4,-29,113,-130,69,127,-178,35,131,-91,-188,-43,-155,0,0,1,0,0,1,0,0,0,0,1
28,158,54.939354953687605,22.0,-11,82,-106,-491,-514,-615,10,89,-37,-233,-76,-146,0,1,0,0,1,0,0,0,0,1,0
28,158,54.936325534454355,22.0,-18,112,-98,-493,-516,-616,-91,215,-106,-170,-73,-169,0,1,0,0,1,0,0,0,0,0,1
28,158,54.93834755368919,22.0,-2,100,-97,2,83,-126,28,106,-77,-187,-79,-153,0,1,0,0,1,0,0,0,1,0,0
46,162,74.95717561897324,28.6,6,85,-17,9,27,-30,20,99,-61,-145,-105,-152,1,0,0,0,1,0,1,0,0,0,0
46,162,74.95653683636364,28.6,-5,64,-55,-10,14,-37,-2,94,-73,-162,-107,-172,1,0,0,0,1,0,1,0,0,0,0
46,162,74.95675008689524,28.6,3,106,-83,2,89,-122,28,106,-86,-185,-89,-161,1,0,0,0,1,0,0,0,1,0,0
46,162,74.95543956172835,28.6,-5,103,-68,3,75,-117,24,106,-85,-160,-91,-154,1,0,0,0,1,0,0,0,1,0,0
46,162,74.9582963337572,28.6,27,114,-44,30,75,-63,21,102,-68,-172,-102,-145,1,0,0,0,1,0,0,1,0,0,0
28,158,54.93857443639442,22.0,1,100,-90,-4,86,-126,15,92,-55,-193,-84,-158,0,1,0,0,1,0,0,0,1,0,0
46,162,74.95576442697175,28.6,2,94,-49,-19,23,-13,11,107,-93,-165,-95,-153,1,0,0,0,1,0,1,0,0,0,0
46,162,74.95343163256308,28.6,21,103,-25,13,23,-26,9,95,-60,-142,-99,-152,1,0,0,0,1,0,0,1,0,0,0
31,171,82.8827495848652,28.4,-22,106,-118,-477,-500,-600,-20,180,-98,-221,-74,-164,0,0,1,0,0,1,0,0,0,0,1
46,162,74.95751093001871,28.6,12,89,-16,10,27,-30,21,99,-64,-144,-105,-152,1,0,0,0,1,0,1,0,0,0,0
75,167,66.87781662703148,24.0,-15,102,-120,-30,86,-95,8,124,-98,-204,-84,-144,0,0,0,1,0,1,0,0,0,1,0
28,158,54.9359858971843,22.0,-10,82,-107,-374,-397,-497,24,122,-121,-201,-79,-163,0,1,0,0,1,0,0,0,0,0,1
46,162,74.96121323599488,28.6,-5,105,-105,10,89,-118,1,101,-77,-153,-98,-160,1,0,0,0,1,0,0,1,0,0,0
28,158,54.94038592784398,22.0,-15,87,-64,-461,-471,-586,-36,8,-192,-167,-92,-158,0,1,0,0,1,0,0,0,0,1,0
28,158,54.94091245083716,22.0,4,89,-137,-491,-514,-614,6,94,-42,-257,-103,-160,0,1,0,0,1,0,0,0,0,1,0
75,167,66.87587473935677,24.0,28,108,-160,-9,70,-104,3,236,-161,-171,-49,-133,0,0,0,1,0,1,0,0,0,0,1
31,171,82.88418242562096,28.4,-4,95,-111,-442,-488,-588,14,126,-97,-212,-83,-184,0,0,1,0,0,1,0,0,0,0,1
46,162,74.95579891465573,28.6,-1,97,-90,16,58,-110,12,108,-96,-172,-87,-166,1,0,0,0,1,0,0,0,0,0,1
75,167,66.8752084973221,24.0,-12,90,-90,-29,-21,-24,-74,79,-96,-94,-146,-145,0,0,0,1,0,1,1,0,0,0,0
75,167,66.87591004902252,24.0,-14,103,-155,-26,91,-106,7,169,-126,-202,-102,-138,0,0,0,1,0,1,0,0,0,0,1
31,171,82.89011924375033,28.4,-11,94,-119,12,90,-130,19,120,-86,-148,-77,-172,0,0,1,0,0,1,0,0,0,1,0
28,158,54.93878965625772,22.0,1,102,-96,6,89,-121,23,103,-80,-193,-89,-162,0,1,0,0,1,0,0,0,1,0,0
28,158,54.93848012714229,22.0,0,100,-95,0,85,-125,24,99,-86,-193,-81,-157,0,1,0,0,1,0,0,0,1,0,0
46,162,74.95582099382351,28.6,-10,92,-98,-1,73,-123,14,104,-87,-163,-102,-162,1,0,0,0,1,0,0,0,1,0,0
28,158,54.93724460499769,22.0,-12,109,-123,-490,-513,-613,28,156,-115,-168,-60,-179,0,1,0,0,1,0,0,0,0,0,1
31,171,82.88443994172069,28.4,6,95,-113,-487,-510,-610,11,125,-96,-227,-89,-186,0,0,1,0,0,1,0,0,0,0,1
46,162,74.95264265151117,28.6,3,101,-92,-13,112,-15,5,109,-83,-145,-104,-151,1,0,0,0,1,0,0,0,0,0,1
46,162,74.95620622849324,28.6,-10,97,-98,1,79,-122,15,104,-90,-160,-106,-160,1,0,0,0,1,0,0,0,1,0,0
31,171,82.88334323752491,28.4,-17,105,-120,-490,-513,-613,51,162,-30,-203,-71,-166,0,0,1,0,0,1,0,0,0,0,1
31,171,82.8812758387698,28.4,1,98,-97,-34,-11,-22,59,52,-87,-99,-108,-197,0,0,1,0,0,1,0,0,0,1,0
31,171,82.88598217067398,28.4,-12,93,-123,4,88,-143,32,118,-83,-172,-78,-155,0,0,1,0,0,1,0,0,1,0,0
46,162,74.95650060017067,28.6,-6,104,-99,5,86,-123,20,108,-97,-179,-89,-160,1,0,0,0,1,0,0,0,1,0,0
31,171,82.89046581509773,28.4,25,64,-132,61,140,-160,-55,179,-115,-200,-34,-172,0,0,1,0,0,1,0,0,0,0,1
31,171,82.88524404302419,28.4,-28,89,-122,-476,-499,-593,18,117,-76,-183,-79,-131,0,0,1,0,0,1,0,0,0,1,0
46,162,74.95745402301836,28.6,11,87,-14,11,29,-29,21,98,-60,-145,-106,-152,1,0,0,0,1,0,1,0,0,0,0
31,171,82.88089317025523,28.4,-2,108,-105,-70,114,-26,6,133,-89,-153,-62,-169,0,0,1,0,0,1,0,0,0,0,1
31,171,82.8866266325637,28.4,-6,63,-125,41,46,-170,16,128,-105,-220,-67,-175,0,0,1,0,0,1,0,0,0,0,1
28,158,54.93750854539248,22.0,4,98,-84,-383,-446,-550,34,155,-114,-193,-72,-168,0,1,0,0,1,0,0,0,0,0,1
75,167,66.87512487573267,24.0,-13,96,-105,-14,-20,-21,-72,81,-99,-109,-145,-127,0,0,0,1,0,1,1,0,0,0,0
31,171,82.88594464301124,28.4,8,73,-57,-17,10,-22,65,58,-104,-98,-124,-173,0,0,1,0,0,1,1,0,0,0,0
46,162,74.95573334593468,28.6,-19,109,-87,-14,98,-103,-23,229,-25,-157,-109,-143,1,0,0,0,1,0,0,0,0,0,1
31,171,82.88347042672792,28.4,-10,76,-140,26,72,-105,19,157,-65,-222,-43,-171,0,0,1,0,0,1,0,0,0,0,1
31,171,82.88583665480705,28.4,-7,93,-122,3,89,-140,35,125,-74,-170,-69,-154,0,0,1,0,0,1,0,0,1,0,0
46,162,74.95661583142287,28.6,-5,75,-36,-4,21,-32,4,95,-69,-152,-108,-164,1,0,0,0,1,0,1,0,0,0,0
28,158,54.93202637690387,22.0,-12,96,-81,-15,-31,-15,-356,-392,-490,-170,-86,-159,0,1,0,0,1,0,0,0,0,1,0
31,171,82.88952353748871,28.4,-12,97,-111,-3,96,-124,4,118,-83,-156,-110,-121,0,0,1,0,0,1,0,1,0,0,0
46,162,74.95545415541223,28.6,-6,99,-85,3,70,-117,28,104,-83,-155,-99,-152,1,0,0,0,1,0,0,0,1,0,0
46,162,74.9554115555459,28.6,-5,97,-85,3,70,-115,23,103,-86,-160,-103,-155,1,0,0,0,1,0,0,0,1,0,0
46,162,74.95566306595998,28.6,-10,95,-95,0,73,-119,17,102,-91,-163,-105,-159,1,0,0,0,1,0,0,0,1,0,0
46,162,74.95594459829077,28.6,-4,111,-83,24,64,-101,9,110,-78,-174,-90,-176,1,0,0,0,1,0,0,0,0,0,1
75,167,66.87550902464749,24.0,-12,96,-97,-5,-9,-20,-59,87,-127,-109,-144,-123,0,0,0,1,0,1,1,0,0,0,0
46,162,74.95884864872218,28.6,44,106,-9,30,29,-26,24,99,-40,-140,-93,-144,1,0,0,0,1,0,1,0,0,0,0
46,162,74.95738581608002,28.6,-6,98,-94,-8,85,-121,-15,85,-98,-164,-100,-167,1,0,0,0,1,0,0,0,0,0,1
31,171,82.88589865729587,28.4,7,71,-59,-17,9,-23,65,58,-104,-98,-124,-173,0,0,1,0,0,1,1,0,0,0,0
28,158,54.934648961597674,22.0,-15,37,-13,0,-21,-19,26,107,-82,-148,-96,-163,0,1,0,0,1,0,1,0,0,0,0
46,162,74.95471678043279,28.6,-1,90,-79,1,62,-93,13,108,-84,-171,-96,-168,1,0,0,0,1,0,0,0,0,0,1
31,171,82.88583811342626,28.4,-11,97,-123,-3,90,-140,23,119,-86,-175,-78,-152,0,0,1,0,0,1,0,0,1,0,0
46,162,74.95436604325045,28.6,-23,65,-106,-39,94,-114,5,182,-72,-157,-59,-148,1,0,0,0,1,0,0,0,0,0,1
75,167,66.87401848806255,24.0,-11,96,-92,-2,-13,-20,-64,83,-130,-185,-92,-126,0,0,0,1,0,1,1,0,0,0,0
31,171,82.88565241566107,28.4,-8,110,-130,-280,-293,-396,-18,111,-76,-186,-70,-117,0,0,1,0,0,1,0,1,0,0,0
28,158,54.94129842805077,22.0,-31,24,-24,-271,-374,-456,27,109,-86,-150,-93,-170,0,1,0,0,1,0,1,0,0,0,0
28,158,54.938677100006615,22.0,-5,101,-99,8,87,-123,30,103,-85,-202,-91,-165,0,1,0,0,1,0,0,0,1,0,0
28,158,54.934604569246716,22.0,-17,39,-28,-25,-33,-29,29,107,-80,-147,-95,-166,0,1,0,0,1,0,1,0,0,0,0
46,162,74.95840774450137,28.6,-2,145,-89,-33,124,-108,-106,122,78,-163,-94,-158,1,0,0,0,1,0,0,0,0,0,1
28,158,54.93556832181615,22.0,-24,63,-142,-493,-516,-616,40,155,-130,-178,-48,-171,0,1,0,0,1,0,0,0,0,0,1
31,171,82.88386573900326,28.4,0,68,-65,-24,-29,-24,67,61,-98,-88,-123,-158,0,0,1,0,0,1,1,0,0,0,0
31,171,82.88428475184122,28.4,4,70,-62,-23,-30,-24,61,54,-104,-94,-131,-168,0,0,1,0,0,1,1,0,0,0,0
46,162,74.95576580837601,28.6,0,87,-45,-19,23,-16,14,108,-92,-163,-94,-160,1,0,0,0,1,0,1,0,0,0,0
28,158,54.938746124955685,22.0,-5,102,-100,6,82,-131,40,104,-84,-188,-82,-156,0,1,0,0,1,0,0,0,1,0,0
28,158,54.936951557266894,22.0,0,92,-71,-15,-16,-21,31,109,-89,-169,-87,-161,0,1,0,0,1,0,1,0,0,0,0
28,158,54.9368133575422,22.0,-63,56,-129,-34,112,-122,57,191,-129,-171,-69,-171,0,1,0,0,1,0,0,0,0,0,1
75,167,66.87906787060841,24.0,-11,97,-140,-11,88,-103,27,121,-112,-195,-81,-148,0,0,0,1,0,1,0,1,0,0,0
31,171,82.88198978605104,28.4,22,92,-84,-21,7,-30,73,66,-60,-99,-92,-145,0,0,1,0,0,1,0,0,0,1,0
28,158,54.931684330928846,22.0,-9,99,-102,-8,-10,-8,16,102,-56,-213,-98,-134,0,1,0,0,1,0,0,0,0,1,0
75,167,66.87504453314783,24.0,-20,95,-97,-16,-11,-21,-67,84,-124,-101,-116,-153,0,0,0,1,0,1,1,0,0,0,0
28,158,54.93785025526804,22.0,-4,122,-95,-408,-469,-567,34,147,-116,-160,-62,-179,0,1,0,0,1,0,0,0,0,0,1
46,162,74.95517154493713,28.6,-8,94,-96,3,76,-106,8,103,-95,-170,-106,-164,1,0,0,0,1,0,0,0,1,0,0
28,158,54.938530786473954,22.0,0,102,-96,5,88,-120,28,105,-83,-195,-84,-161,0,1,0,0,1,0,0,0,1,0,0
75,167,66.87545926262602,24.0,-10,95,-100,-17,-16,-20,-60,89,-136,-100,-145,-137,0,0,0,1,0,1,1,0,0,0,0
46,162,74.95701810660779,28.6,3,82,-19,7,26,-31,18,98,-63,-148,-106,-153,1,0,0,0,1,0,1,0,0,0,0
28,158,54.93842265740057,22.0,-4,100,-100,2,85,-124,33,109,-84,-193,-83,-160,0,1,0,0,1,0,0,0,1,0,0
46,162,74.95638877186472,28.6,-9,102,-102,6,82,-125,23,108,-98,-178,-91,-160,1,0,0,0,1,0,0,0,1,0,0
46,162,74.95665355081205,28.6,-5,77,-32,-1,22,-31,5,95,-69,-153,-109,-164,1,0,0,0,1,0,1,0,0,0,0
31,171,82.88589552792533,28.4,-5,95,-120,7,91,-132,29,119,-86,-177,-75,-167,0,0,1,0,0,1,0,0,1,0,0
46,162,74.95583482628307,28.6,-1,91,-52,-22,21,-19,11,108,-90,-162,-95,-152,1,0,0,0,1,0,1,0,0,0,0
46,162,74.95700249976217,28.6,3,83,-18,7,27,-29,18,98,-65,-149,-108,-154,1,0,0,0,1,0,1,0,0,0,0
31,171,82.88399916688988,28.4,-52,52,-150,1,99,-141,51,206,-95,-201,-45,-152,0,0,1,0,0,1,0,0,0,0,1
31,171,82.88709848674173,28.4,-8,70,-136,27,78,-90,13,122,-78,-179,-95,-149,0,0,1,0,0,1,0,1,0,0,0
28,158,54.93300721544341,22.0,-16,83,-159,27,5,-10,5,108,-123,-189,-125,-104,0,1,0,0,1,0,0,1,0,0,0
46,162,74.9563694988198,28.6,-6,104,-95,5,86,-121,25,108,-99,-177,-89,-160,1,0,0,0,1,0,0,0,1,0,0
28,158,54.938566901056646,22.0,-20,132,-107,-39,111,-105,13,260,-102,-169,-78,-162,0,1,0,0,1,0,0,0,0,0,1
31,171,82.88286070931652,28.4,7,58,-122,-492,-515,-615,21,120,-92,-184,-36,-171,0,0,1,0,0,1,0,0,0,0,1
75,167,66.875248790954,24.0,-18,98,-94,-13,-11,-21,-63,86,-129,-107,-140,-132,0,0,0,1,0,1,1,0,0,0,0
31,171,82.88409443102451,28.4,1,68,-65,-24,-32,-25,64,56,-102,-93,-131,-166,0,0,1,0,0,1,1,0,0,0,0
46,162,74.95178493019576,28.6,-6,88,-83,11,14,-22,31,89,-81,-184,-93,-157,1,0,0,0,1,0,0,0,0,1,0
46,162,74.95593227455868,28.6,6,100,-90,1,105,-73,6,110,-81,-180,-95,-175,1,0,0,0,1,0,0,0,0,0,1
46,162,74.95601300946548,28.6,1,94,-58,-16,20,-16,18,108,-91,-164,-92,-161,1,0,0,0,1,0,1,0,0,0,0
31,171,82.88419548542278,28.4,4,70,-62,-22,-27,-22,62,54,-103,-95,-127,-166,0,0,1,0,0,1,1,0,0,0,0
28,158,54.936774182222706,22.0,-13,82,-112,-492,-515,-615,67,31,-118,-173,-62,-163,0,1,0,0,1,0,0,0,0,0,1
28,158,54.935372072989686,22.0,2,99,-159,11,50,-8,6,96,-36,-251,-130,-114,0,1,0,0,1,0,0,0,0,1,0
31,171,82.88432532904145,28.4,5,73,-60,-21,-25,-21,62,55,-103,-96,-128,-166,0,0,1,0,0,1,1,0,0,0,0
31,171,82.88845290363572,28.4,-6,61,-162,-9,88,-106,12,117,-78,-178,-101,-167,0,0,1,0,0,1,0,0,0,1,0
46,162,74.95962210837176,28.6,-9,94,-83,12,89,-104,34,98,-72,-182,-94,-164,1,0,0,0,1,0,0,0,0,1,0
31,171,82.88401550809594,28.4,31,51,-145,-488,-509,-610,22,116,-72,-197,-73,-143,0,0,1,0,0,1,0,0,0,0,1
28,158,54.93875339890026,22.0,-3,100,-100,2,85,-126,-2,67,-117,-196,-87,-164,0,1,0,0,1,0,0,0,1,0,0
75,167,66.8739400917156,24.0,-17,88,-161,-6,87,-93,16,123,-106,-214,-73,-168,0,0,0,1,0,1,0,0,1,0,0
28,158,54.933134621590604,22.0,5,107,-155,28,12,-4,11,89,-36,-274,-61,-137,0,1,0,0,1,0,0,0,0,1,0
46,162,74.95533180846375,28.6,-6,97,-85,4,71,-113,25,104,-84,-157,-103,-155,1,0,0,0,1,0,0,0,1,0,0
46,162,74.95534491707505,28.6,2,100,-110,2,85,-95,16,211,-132,-159,-69,-147,1,0,0,0,1,0,0,0,0,0,1
31,171,82.88553289083183,28.4,-2,139,-113,32,114,-69,9,137,-93,-194,-69,-183,0,0,1,0,0,1,0,0,0,0,1
28,158,54.936237406421306,22.0,-2,101,-95,-490,-512,-612,7,88,-110,-193,-80,-163,0,1,0,0,1,0,0,0,1,0,0
28,158,54.937367004430875,22.0,-14,94,-115,-485,-508,-609,42,93,-100,-182,-91,-171,0,1,0,0,1,0,0,0,0,0,1
75,167,66.87532724277466,24.0,-25,87,-147,-14,87,-97,46,60,-119,-157,-95,-148,0,0,0,1,0,1,0,0,0,0,1
46,162,74.95120371460867,28.6,-8,94,-75,4,10,-17,38,98,-72,-179,-89,-159,1,0,0,0,1,0,0,0,0,1,0
28,158,54.9385956426135,22.0,-2,101,-97,5,86,-123,26,102,-92,-197,-86,-163,0,1,0,0,1,0,0,0,1,0,0
28,158,54.93662295406933,22.0,-7,101,-97,-493,-516,-616,-86,203,-67,-167,-77,-169,0,1,0,0,1,0,0,0,0,0,1
46,162,74.95653262287809,28.6,-2,103,-94,-5,83,-129,2,105,-73,-181,-88,-156,1,0,0,0,1,0,0,0,1,0,0
46,162,74.9559006717556,28.6,0,88,-48,-19,22,-18,15,108,-89,-160,-94,-159,1,0,0,0,1,0,1,0,0,0,0
28,158,54.93724925097557,22.0,-29,31,-25,-258,-355,-367,30,109,-101,-154,-93,-162,0,1,0,0,1,0,1,0,0,0,0
46,162,74.95577509566738,28.6,0,91,-48,-20,23,-16,12,107,-89,-164,-96,-152,1,0,0,0,1,0,1,0,0,0,0
31,171,82.88474112033101,28.4,1,120,-97,-11,112,-78,2,131,-76,-226,-70,-183,0,0,1,0,0,1,0,0,0,0,1
46,162,74.95634254188691,28.6,-2,104,-85,-3,85,-122,27,106,-85,-180,-92,-158,1,0,0,0,1,0,0,0,1,0,0
31,171,82.88578843578146,28.4,-9,92,-122,1,89,-140,33,120,-75,-168,-71,-155,0,0,1,0,0,1,0,0,1,0,0
31,171,82.88622333286527,28.4,-16,93,-137,0,87,-148,38,120,-80,-166,-78,-155,0,0,1,0,0,1,0,0,1,0,0
28,158,54.93841720164144,22.0,0,100,-90,-5,84,-127,15,93,-58,-192,-81,-156,0,1,0,0,1,0,0,0,1,0,0
31,171,82.88535567393367,28.4,-32,76,-110,15,88,-135,2,87,-133,-203,-78,-164,0,0,1,0,0,1,0,0,0,0,1
31,171,82.88734890029306,28.4,-1,73,-122,49,29,-180,12,121,-90,-229,-83,-181,0,0,1,0,0,1,0,0,0,0,1
28,158,54.937101275126224,22.0,-6,94,-109,-465,-488,-587,3,97,-100,-186,-86,-167,0,1,0,0,1,0,0,0,0,0,1
75,167,66.87416562253723,24.0,-9,94,-152,-7,88,-90,16,122,-106,-201,-74,-163,0,0,0,1,0,1,0,0,1,0,0
28,158,54.94227232290148,22.0,-2,91,-105,5,73,-122,13,95,-89,-210,-106,-152,0,1,0,0,1,0,0,0,0,1,0
28,158,54.939744459031964,22.0,-3,70,-143,-318,-350,-445,-13,64,-121,-234,-117,-155,0,1,0,0,1,0,0,0,0,1,0
31,171,82.88577455467845,28.4,-8,93,-125,4,90,-138,30,122,-81,-172,-71,-153,0,0,1,0,0,1,0,0,1,0,0
28,158,54.93576214318585,22.0,-12,100,-94,-493,-517,-616,22,109,-98,-192,-80,-162,0,1,0,0,1,0,0,0,1,0,0
28,158,54.93653281411107,22.0,-12,125,-110,-448,-465,-566,-118,173,-61,-167,-60,-165,0,1,0,0,1,0,0,0,0,0,1
28,158,54.940380303650954,22.0,-10,74,-123,19,102,-75,25,108,-104,-200,-109,-138,0,1,0,0,1,0,0,1,0,0,0
46,162,74.95443203047755,28.6,33,122,-18,31,31,-23,23,103,-55,-154,-95,-148,1,0,0,0,1,0,0,1,0,0,0
46,162,74.95506791651613,28.6,6,99,-87,-7,97,-62,12,106,-89,-178,-105,-176,1,0,0,0,1,0,0,0,0,0,1
46,162,74.95889426908495,28.6,25,134,-4,18,86,-69,29,105,-60,-138,-86,-150,1,0,0,0,1,0,0,1,0,0,0
31,171,82.8843609179583,28.4,3,66,-58,-37,-23,-26,76,69,-105,-81,-140,-156,0,0,1,0,0,1,1,0,0,0,0
75,167,66.87388282830223,24.0,-17,89,-159,-9,88,-94,19,127,-103,-191,-78,-147,0,0,0,1,0,1,0,0,1,0,0
46,162,74.95623039785146,28.6,-13,112,-87,-8,99,-100,18,105,-94,-152,-99,-132,1,0,0,0,1,0,0,0,0,0,1
31,171,82.88645492861951,28.4,-6,71,-118,68,37,-165,22,132,-116,-210,-61,-179,0,0,1,0,0,1,0,0,0,0,1
46,162,74.9573753565615,28.6,11,86,-14,11,28,-30,22,100,-58,-142,-103,-150,1,0,0,0,1,0,1,0,0,0,0
28,158,54.93837235401122,22.0,-4,100,-96,1,85,-124,-8,60,-118,-192,-81,-158,0,1,0,0,1,0,0,0,1,0,0
31,171,82.88565891152768,28.4,-11,96,-123,-2,90,-139,33,127,-79,-172,-69,-154,0,0,1,0,0,1,0,0,1,0,0
31,171,82.88614572256384,28.4,-4,98,-116,5,93,-136,29,119,-83,-177,-76,-160,0,0,1,0,0,1,0,0,1,0,0
28,158,54.941367444855025,22.0,-7,100,-108,-10,86,-104,23,109,-112,-189,-87,-145,0,1,0,0,1,0,0,1,0,0,0
46,162,74.95462554664601,28.6,0,99,-79,-4,80,-74,-8,119,-87,-174,-102,-174,1,0,0,0,1,0,0,0,0,0,1
28,158,54.9356213756653,22.0,-19,65,-124,-493,-516,-616,41,165,-143,-180,-52,-170,0,1,0,0,1,0,0,0,0,0,1
28,158,54.938813419833494,22.0,-4,86,-141,-9,77,-56,15,102,-131,-204,-104,-155,0,1,0,0,1,0,0,1,0,0,0
31,171,82.88404535700191,28.4,27,94,-133,-9,65,-41,67,60,-53,-184,-46,-116,0,0,1,0,0,1,0,0,0,1,0
46,162,74.95562037559756,28.6,-9,93,-96,2,72,-119,20,102,-89,-164,-105,-157,1,0,0,0,1,0,0,0,1,0,0
28,158,54.94126872736667,22.0,27,122,-130,-71,72,-129,93,194,-121,-165,-125,-170,0,1,0,0,1,0,0,0,0,0,1
46,162,74.9547699713302,28.6,-9,89,-104,-1,-14,-95,45,46,-62,-180,-91,-143,1,0,0,0,1,0,0,0,0,1,0
31,171,82.88516723901081,28.4,-3,96,-111,13,89,-120,25,123,-84,-163,-73,-163,0,0,1,0,0,1,0,0,1,0,0
28,158,54.935982671526844,22.0,-11,101,-94,-493,-517,-617,19,103,-104,-183,-79,-165,0,1,0,0,1,0,0,0,1,0,0
46,162,74.95506340376085,28.6,-3,88,-94,19,52,-110,6,111,-99,-200,-82,-166,1,0,0,0,1,0,0,0,0,0,1
46,162,74.95599627418541,28.6,4,97,-93,30,37,-116,2,101,-95,-181,-104,-169,1,0,0,0,1,0,0,0,0,0,1
46,162,74.95585148419909,28.6,-3,89,-52,-20,21,-18,16,108,-89,-155,-95,-159,1,0,0,0,1,0,1,0,0,0,0
46,162,74.95230293980721,28.6,5,106,-81,-10,21,-14,7,95,-64,-162,-90,-161,1,0,0,0,1,0,0,1,0,0,0
75,167,66.87420320934083,24.0,-18,85,-155,-23,87,-90,4,151,-123,-203,-79,-154,0,0,0,1,0,1,0,0,0,0,1
31,171,82.88255501596554,28.4,-30,125,-135,-484,-505,-604,-41,161,-95,-224,-50,-163,0,0,1,0,0,1,0,0,0,0,1
31,171,82.88293156312349,28.4,-40,128,-120,-344,-400,-512,-49,263,11,-219,-84,-158,0,0,1,0,0,1,0,0,0,0,1
46,162,74.95663895005946,28.6,-5,77,-32,-1,22,-32,5,96,-67,-150,-106,-162,1,0,0,0,1,0,1,0,0,0,0
46,162,74.95668816288538,28.6,-12,119,-93,-33,65,-136,-88,175,9,-147,-106,-146,1,0,0,0,1,0,0,0,0,0,1
28,158,54.94102837668237,22.0,-33,19,-29,-280,-374,-456,27,109,-87,-153,-93,-170,0,1,0,0,1,0,1,0,0,0,0
31,171,82.88559803688796,28.4,-9,93,-123,5,89,-138,33,124,-79,-178,-69,-152,0,0,1,0,0,1,0,0,1,0,0
28,158,54.93724342648461,22.0,-7,116,-100,-492,-516,-615,-19,185,-57,-170,-77,-172,0,1,0,0,1,0,0,0,0,0,1
46,162,74.95569385925803,28.6,-2,88,-50,-22,21,-19,10,107,-91,-167,-97,-151,1,0,0,0,1,0,1,0,0,0,0
31,171,82.88884795753997,28.4,0,124,-101,52,147,-106,11,132,-96,-185,-71,-178,0,0,1,0,0,1,0,0,0,0,1
28,158,54.93874430306037,22.0,-4,101,-94,10,89,-123,25,86,-101,-194,-86,-163,0,1,0,0,1,0,0,0,1,0,0
31,171,82.88442699393852,28.4,7,72,-60,-16,-31,-21,66,58,-102,-90,-133,-172,0,0,1,0,0,1,1,0,0,0,0
28,158,54.941068322681744,22.0,-6,91,-120,-2,89,-96,25,108,-123,-195,-88,-144,0,1,0,0,1,0,0,1,0,0,0
46,162,74.95603957106105,28.6,-1,100,-66,-11,21,-13,-13,104,-90,-153,-102,-147,1,0,0,0,1,0,1,0,0,0,0
28,158,54.93748459460874,22.0,1,98,-115,-436,-459,-558,46,118,-135,-188,-83,-173,0,1,0,0,1,0,0,0,0,0,1
75,167,66.87458244050065,24.0,-5,92,-152,2,90,-90,11,122,-116,-184,-78,-160,0,0,0,1,0,1,0,0,1,0,0
28,158,54.938492165266204,22.0,1,101,-89,-4,87,-123,26,95,-44,-196,-87,-157,0,1,0,0,1,0,0,0,1,0,0
31,171,82.8852708353763,28.4,0,69,-64,-28,1,-26,95,88,-134,-92,-113,-179,0,0,1,0,0,1,1,0,0,0,0
46,162,74.95546416222646,28.6,-11,91,-95,-9,69,-125,11,100,-67,-158,-101,-154,1,0,0,0,1,0,0,0,1,0,0
31,171,82.88471850961669,28.4,6,68,-56,-35,-21,-24,72,64,-110,-87,-147,-164,0,0,1,0,0,1,1,0,0,0,0
46,162,74.95784138556093,28.6,18,93,-14,14,29,-28,22,98,-61,-143,-105,-152,1,0,0,0,1,0,1,0,0,0,0
28,158,54.938920613755684,22.0,-3,103,-100,12,87,-125,34,103,-86,-191,-88,-160,0,1,0,0,1,0,0,0,1,0,0
28,158,54.936902726556944,22.0,-6,109,-101,-493,-516,-616,-72,211,-100,-182,-81,-170,0,1,0,0,1,0,0,0,0,0,1
31,171,82.88589835660484,28.4,-11,94,-119,4,91,-137,29,120,-83,-168,-76,-164,0,0,1,0,0,1,0,0,1,0,0
46,162,74.95594007420073,28.6,1,96,-92,21,50,-114,-3,111,-85,-174,-97,-165,1,0,0,0,1,0,0,0,0,0,1
28,158,54.93657627544916,22.0,6,90,-178,5,40,-36,13,107,-118,-238,-85,-149,0,1,0,0,1,0,0,1,0,0,0
28,158,54.932847859353906,22.0,-5,89,-162,11,0,-11,8,108,-121,-247,-97,-131,0,1,0,0,1,0,0,1,0,0,0
31,171,82.88340344155337,28.4,-13,92,-118,-491,-514,-614,31,163,-57,-177,-63,-182,0,0,1,0,0,1,0,0,0,0,1
28,158,54.93746803271652,22.0,-3,104,-121,-493,-516,-615,46,199,-93,-169,-78,-170,0,1,0,0,1,0,0,0,0,0,1
46,162,74.9553465627846,28.6,-12,90,-95,-8,69,-124,11,101,-67,-159,-100,-155,1,0,0,0,1,0,0,0,1,0,0
46,162,74.95654465093523,28.6,-5,68,-45,-6,19,-33,0,93,-75,-161,-109,-169,1,0,0,0,1,0,1,0,0,0,0
31,171,82.88390049651338,28.4,1,68,-64,-23,-31,-24,67,61,-98,-87,-125,-160,0,0,1,0,0,1,1,0,0,0,0
46,162,74.95535483439066,28.6,-7,96,-87,3,70,-115,23,103,-85,-162,-104,-156,1,0,0,0,1,0,0,0,1,0,0
31,171,82.88574580743017,28.4,-10,94,-127,3,90,-139,33,127,-82,-169,-70,-151,0,0,1,0,0,1,0,0,1,0,0
28,158,54.93811280335637,22.0,-5,99,-85,-5,83,-128,22,98,-46,-190,-83,-150,0,1,0,0,1,0,0,0,1,0,0
46,162,74.9608086496816,28.6,-4,109,-91,11,90,-114,15,105,-69,-151,-89,-155,1,0,0,0,1,0,0,1,0,0,0
31,171,82.88403722328596,28.4,2,69,-63,-16,-32,-22,69,61,-98,-85,-127,-166,0,0,1,0,0,1,1,0,0,0,0
31,171,82.88576240208911,28.4,-9,93,-124,5,90,-138,35,125,-79,-168,-69,-155,0,0,1,0,0,1,0,0,1,0,0
28,158,54.93628328935225,22.0,-4,94,-102,-368,-450,-519,32,123,-125,-186,-87,-186,0,1,0,0,1,0,0,0,0,0,1
46,162,74.95582182029857,28.6,0,93,-51,-20,22,-16,12,108,-89,-162,-95,-153,1,0,0,0,1,0,1,0,0,0,0
46,162,74.95665166239439,28.6,-7,99,-124,5,73,-61,20,111,-66,-214,-96,-153,1,0,0,0,1,0,0,0,0,1,0
46,162,74.95651801445145,28.6,-14,97,-83,-15,74,-126,36,116,-82,-160,-102,-151,1,0,0,0,1,0,0,0,0,0,1
28,158,54.938252327582404,22.0,15,100,-119,-493,-516,-616,38,167,-125,-175,-92,-160,0,1,0,0,1,0,0,0,0,0,1
28,158,54.936837016505024,22.0,-2,88,-72,-18,-17,-22,31,108,-89,-167,-87,-164,0,1,0,0,1,0,1,0,0,0,0
46,162,74.95773684412248,28.6,-9,92,-108,2,73,-83,33,56,-69,-210,-99,-151,1,0,0,0,1,0,0,0,0,1,0
46,162,74.95660827269502,28.6,-4,106,-96,6,88,-122,21,108,-96,-180,-90,-158,1,0,0,0,1,0,0,0,1,0,0
31,171,82.88384313651746,28.4,0,66,-66,-25,-32,-26,68,61,-98,-87,-127,-155,0,0,1,0,0,1,1,0,0,0,0
28,158,54.93419432172846,22.0,-21,24,-18,-24,-23,-25,0,87,-87,-145,-93,-169,0,1,0,0,1,0,1,0,0,0,0
28,158,54.93708127632421,22.0,-9,101,-89,-491,-514,-615,30,130,-123,-169,-66,-180,0,1,0,0,1,0,0,0,0,0,1
28,158,54.938509868383875,22.0,-9,99,-102,4,81,-133,43,106,-81,-185,-79,-153,0,1,0,0,1,0,0,0,1,0,0
46,162,74.95601442879756,28.6,1,89,-49,-21,22,-21,8,107,-89,-164,-95,-154,1,0,0,0,1,0,1,0,0,0,0
28,158,54.939495170550934,22.0,-26,32,-29,-253,-268,-340,38,107,-102,-162,-91,-169,0,1,0,0,1,0,1,0,0,0,0
46,162,74.9564505157343,28.6,-7,101,-103,2,82,-126,18,107,-97,-180,-89,-163,1,0,0,0,1,0,0,0,1,0,0
28,158,54.93819617771654,22.0,17,124,-99,-46,146,-64,4,218,-65,-169,-39,-167,0,1,0,0,1,0,0,0,0,0,1
46,162,74.95747005691213,28.6,8,101,-120,12,78,-55,8,104,-75,-190,-97,-156,1,0,0,0,1,0,0,1,0,0,0
28,158,54.93770947722636,22.0,0,93,-119,-493,-516,-616,8,18,-136,-175,-71,-167,0,1,0,0,1,0,0,0,0,0,1
46,162,74.95483546031069,28.6,-7,102,-59,3,64,-115,23,105,-86,-156,-97,-155,1,0,0,0,1,0,0,0,1,0,0
46,162,74.95509418340235,28.6,-7,101,-70,3,67,-117,22,104,-86,-165,-96,-155,1,0,0,0,1,0,0,0,1,0,0
46,162,74.95727415745534,28.6,8,86,-16,9,27,-30,20,98,-62,-147,-106,-152,1,0,0,0,1,0,1,0,0,0,0
46,162,74.95511685430768,28.6,0,108,-89,14,93,-87,15,108,-106,-180,-89,-165,1,0,0,0,1,0,0,0,1,0,0
46,162,74.95921996941895,28.6,-1,91,-121,7,88,-87,15,106,-73,-176,-101,-155,1,0,0,0,1,0,0,1,0,0,0
28,158,54.936499564951006,22.0,-8,81,-117,-455,-478,-578,40,122,-142,-184,-66,-167,0,1,0,0,1,0,0,0,0,0,1
28,158,54.934384414471054,22.0,-20,33,-23,-27,-28,-30,29,107,-81,-151,-93,-161,0,1,0,0,1,0,1,0,0,0,0
46,162,74.9558062023866,28.6,2,93,-50,-18,23,-14,7,107,-91,-163,-95,-152,1,0,0,0,1,0,1,0,0,0,0
31,171,82.88719932391139,28.4,24,89,-137,-10,92,-135,46,112,-72,-238,-81,-188,0,0,1,0,0,1,0,0,1,0,0
31,171,82.88408441106753,28.4,0,68,-65,-24,-32,-25,62,54,-104,-94,-131,-168,0,0,1,0,0,1,1,0,0,0,0
31,171,82.88709202233936,28.4,-17,89,-161,-299,-290,-414,-19,-20,-86,-207,-77,-151,0,0,1,0,0,1,0,1,0,0,0
28,158,54.934531825843564,22.0,-17,26,-17,-26,-22,-27,5,92,-81,-144,-94,-169,0,1,0,0,1,0,1,0,0,0,0
28,158,54.9377362370317,22.0,3,112,-128,-490,-513,-614,73,197,-173,-174,-66,-159,0,1,0,0,1,0,0,0,0,0,1
46,162,74.95660243054027,28.6,2,92,-88,32,32,-135,8,107,-105,-165,-101,-163,1,0,0,0,1,0,0,0,0,0,1
28,158,54.93450574465339,22.0,-18,34,-18,-13,-25,-24,28,106,-81,-148,-96,-164,0,1,0,0,1,0,1,0,0,0,0
28,158,54.938340185974276,22.0,0,101,-93,-7,83,-125,48,99,-60,-183,-81,-151,0,1,0,0,1,0,0,0,1,0,0
75,167,66.87507242863954,24.0,-11,94,-96,-1,-25,-21,-62,89,-124,-106,-132,-143,0,0,0,1,0,1,1,0,0,0,0
28,158,54.93687582562946,22.0,-5,88,-122,-493,-516,-615,26,123,-127,-199,-69,-168,0,1,0,0,1,0,0,0,0,0,1
28,158,54.93199758132523,22.0,-11,102,-98,4,-19,-12,20,105,-112,-169,-94,-137,0,1,0,0,1,0,0,1,0,0,0
46,162,74.95639053050108,28.6,-8,64,-48,-9,16,-37,8,97,-77,-159,-106,-168,1,0,0,0,1,0,1,0,0,0,0
46,162,74.9575928542579,28.6,-5,96,-90,-6,86,-120,69,21,-143,-170,-93,-163,1,0,0,0,1,0,0,0,0,0,1
46,162,74.9560684882439,28.6,-7,101,-94,5,83,-124,23,108,-99,-192,-87,-154,1,0,0,0,1,0,0,0,1,0,0
28,158,54.93638158468817,22.0,-30,28,-30,-273,-357,-357,30,110,-101,-152,-93,-163,0,1,0,0,1,0,1,0,0,0,0
31,171,82.88542715344174,28.4,-19,85,-112,2,91,-118,44,102,-114,-194,-83,-173,0,0,1,0,0,1,0,0,0,0,1
28,158,54.934390338952724,22.0,-18,30,-23,-22,-25,-24,28,108,-86,-146,-94,-168,0,1,0,0,1,0,1,0,0,0,0
31,171,82.8832099042515,28.4,-32,117,-136,-486,-509,-609,21,122,-90,-226,-80,-161,0,0,1,0,0,1,0,0,0,0,1
31,171,82.8841862112494,28.4,3,69,-62,-23,-28,-24,61,54,-103,-96,-127,-166,0,0,1,0,0,1,1,0,0,0,0
75,167,66.8755520368791,24.0,-15,95,-99,-7,-10,-21,-63,87,-129,-102,-136,-140,0,0,0,1,0,1,1,0,0,0,0
28,158,54.94019468371247,22.0,-23,19,-24,-208,-230,-321,37,108,-102,-163,-91,-166,0,1,0,0,1,0,1,0,0,0,0
46,162,74.95859130485779,28.6,40,126,43,20,40,-22,24,101,-27,-125,-91,-136,1,0,0,0,1,0,1,0,0,0,0
46,162,74.95594622234044,28.6,0,91,-48,-17,24,-15,14,107,-92,-159,-95,-160,1,0,0,0,1,0,1,0,0,0,0
28,158,54.94104850179401,22.0,-2,102,-106,-477,-499,-598,-364,-407,-513,-221,-89,-142,0,1,0,0,1,0,0,0,0,1,0
46,162,74.95563007212917,28.6,0,90,-46,-21,23,-15,11,108,-91,-165,-95,-152,1,0,0,0,1,0,1,0,0,0,0
46,162,74.95866623192708,28.6,-13,89,-99,16,80,-93,38,68,-77,-194,-103,-156,1,0,0,0,1,0,0,0,0,1,0
46,162,74.95491032272255,28.6,13,113,-87,-2,68,-73,-5,111,-87,-173,-93,-174,1,0,0,0,1,0,0,0,0,0,1
28,158,54.933359871181345,22.0,6,98,-151,9,-1,-6,11,110,-129,-249,-108,-141,0,1,0,0,1,0,0,1,0,0,0
28,158,54.93782113627328,22.0,5,97,-161,8,55,-44,21,110,-109,-226,-94,-147,0,1,0,0,1,0,0,1,0,0,0
75,167,66.87383446403477,24.0,44,78,-146,-8,82,-55,-35,86,-169,-211,-91,-106,0,0,0,1,0,1,0,0,0,0,1
28,158,54.93835522807207,22.0,2,99,-87,-5,85,-124,27,96,-44,-193,-82,-157,0,1,0,0,1,0,0,0,1,0,0
46,162,74.955851639509,28.6,-4,103,-90,6,72,-119,33,105,-84,-150,-97,-148,1,0,0,0,1,0,0,0,1,0,0
28,158,54.937560886489976,22.0,-7,85,-118,-383,-446,-549,54,119,-129,-190,-77,-178,0,1,0,0,1,0,0,0,0,0,1
75,167,66.87419004335042,24.0,-10,94,-94,-2,-11,-21,-64,86,-127,-183,-105,-113,0,0,0,1,0,1,1,0,0,0,0
46,162,74.95639764078783,28.6,-7,112,-78,11,68,-109,-5,110,-77,-138,-109,-153,1,0,0,0,1,0,0,0,0,0,1
46,162,74.95659932313396,28.6,-5,75,-33,-2,23,-30,3,95,-70,-153,-109,-165,1,0,0,0,1,0,1,0,0,0,0
28,158,54.94098697785475,22.0,-6,95,-106,0,80,-101,20,108,-118,-191,-90,-143,0,1,0,0,1,0,0,1,0,0,0
31,171,82.88554743539136,28.4,-14,73,-89,-296,-302,-408,-4,114,-85,-122,-125,-111,0,0,1,0,0,1,0,1,0,0,0
31,171,82.88382585550028,28.4,-1,65,-65,-24,-29,-25,68,61,-97,-89,-122,-160,0,0,1,0,0,1,1,0,0,0,0
28,158,54.940593014527614,22.0,-18,95,-105,7,80,-100,28,108,-123,-188,-94,-139,0,1,0,0,1,0,0,1,0,0,0
28,158,54.934735273046485,22.0,-14,32,-14,-24,-21,-26,4,92,-82,-145,-93,-169,0,1,0,0,1,0,1,0,0,0,0
28,158,54.938801648617385,22.0,-1,101,-98,5,86,-127,14,86,-99,-199,-84,-160,0,1,0,0,1,0,0,0,1,0,0
46,162,74.95923873571586,28.6,-8,182,-93,-40,128,-118,-3,202,-82,-145,-57,-160,1,0,0,0,1,0,0,0,0,0,1
75,167,66.87412722691103,24.0,-16,89,-156,-7,87,-96,14,121,-108,-191,-78,-155,0,0,0,1,0,1,0,0,1,0,0
28,158,54.941507727664536,22.0,-27,30,-22,-274,-374,-456,27,109,-88,-154,-93,-170,0,1,0,0,1,0,1,0,0,0,0
31,171,82.88447010362563,28.4,-23,67,-120,-268,-286,-382,-4,97,-84,-191,-88,-152,0,0,1,0,0,1,0,0,0,1,0
46,162,74.95474457420116,28.6,3,109,-142,-13,59,-31,3,106,-74,-217,-76,-159,1,0,0,0,1,0,0,1,0,0,0
28,158,54.93752713211762,22.0,1,92,-118,-492,-515,-615,74,126,-144,-200,-91,-156,0,1,0,0,1,0,0,0,0,0,1
46,162,74.95669613944322,28.6,-5,75,-35,-2,21,-33,5,95,-69,-151,-108,-164,1,0,0,0,1,0,1,0,0,0,0
28,158,54.93264402466349,22.0,-8,103,-158,11,-14,-5,13,109,-115,-248,-123,-135,0,1,0,0,1,0,0,1,0,0,0
28,158,54.9342584598749,22.0,-21,27,-19,-26,-23,-25,-5,81,-92,-145,-93,-169,0,1,0,0,1,0,1,0,0,0,0
28,158,54.94087630398228,22.0,-6,87,-100,-477,-502,-600,-345,-404,-498,-174,-81,-155,0,1,0,0,1,0,0,0,0,1,0
28,158,54.93850929713218,22.0,-4,100,-98,1,85,-126,1,70,-114,-190,-81,-158,0,1,0,0,1,0,0,0,1,0,0
28,158,54.938641888160966,22.0,-8,103,-97,9,88,-127,40,103,-79,-188,-83,-153,0,1,0,0,1,0,0,0,1,0,0
46,162,74.95672460772589,28.6,-11,85,-85,-44,64,-139,100,36,-155,-181,-91,-164,1,0,0,0,1,0,0,0,0,0,1
28,158,54.93884048553848,22.0,-3,101,-104,-1,85,-127,-5,64,-116,-191,-87,-162,0,1,0,0,1,0,0,0,1,0,0
46,162,74.95562157464754,28.6,-8,98,-91,3,71,-120,21,103,-85,-159,-98,-155,1,0,0,0,1,0,0,0,1,0,0
46,162,74.95793294270275,28.6,-6,94,-106,7,83,-73,16,102,-70,-197,-101,-167,1,0,0,0,1,0,0,0,0,1,0
46,162,74.9559439405295,28.6,-12,94,-100,14,61,-116,13,108,-104,-175,-81,-179,1,0,0,0,1,0,0,0,0,0,1
46,162,74.95752693712214,28.6,50,108,-90,21,93,-78,-8,39,-123,-199,-89,-154,1,0,0,0,1,0,0,0,0,0,1
31,171,82.88648913152987,28.4,8,127,-113,75,120,-73,3,131,-88,-193,-65,-177,0,0,1,0,0,1,0,0,0,0,1
46,162,74.9591588825955,28.6,-14,92,-104,11,77,-103,30,84,-88,-197,-104,-162,1,0,0,0,1,0,0,0,0,1,0
31,171,82.8861736624335,28.4,-9,102,-162,-293,-300,-406,-17,115,-77,-217,-68,-148,0,0,1,0,0,1,0,1,0,0,0
28,158,54.93603289195237,22.0,-10,103,-90,-492,-514,-614,18,106,-101,-196,-87,-165,0,1,0,0,1,0,0,0,1,0,0
75,167,66.87866438870631,24.0,-12,94,-139,-9,89,-98,18,123,-103,-189,-80,-145,0,0,0,1,0,1,0,1,0,0,0
28,158,54.936276983804206,22.0,-7,102,-92,-491,-515,-615,12,98,-109,-195,-86,-171,0,1,0,0,1,0,0,0,1,0,0
46,162,74.95174201454039,28.6,3,109,-88,-23,106,-1,7,110,-90,-167,-100,-171,1,0,0,0,1,0,0,0,0,0,1
75,167,66.87637616201486,24.0,-7,85,-137,-11,77,-71,-12,118,-103,-223,-87,-147,0,0,0,1,0,1,0,0,0,1,0
31,171,82.88435339261085,28.4,4,67,-60,-35,-24,-26,77,70,-102,-83,-131,-162,0,0,1,0,0,1,1,0,0,0,0
31,171,82.88432971438719,28.4,3,68,-62,-23,-31,-25,63,56,-93,-92,-135,-170,0,0,1,0,0,1,1,0,0,0,0
28,158,54.93641817388479,22.0,-6,87,-163,19,42,-35,13,112,-114,-212,-107,-137,0,1,0,0,1,0,0,1,0,0,0
46,162,74.95534867112781,28.6,-25,58,-123,-47,79,-140,-30,184,-65,-145,-64,-160,1,0,0,0,1,0,0,0,0,0,1
46,162,74.9555499347814,28.6,-7,93,-52,-20,22,-16,14,109,-87,-162,-96,-151,1,0,0,0,1,0,1,0,0,0,0
31,171,82.88429960973319,28.4,7,71,-59,-21,-29,-22,64,56,-102,-93,-131,-165,0,0,1,0,0,1,1,0,0,0,0
28,158,54.939408466120284,22.0,-28,23,-30,-263,-254,-336,38,108,-102,-159,-91,-167,0,1,0,0,1,0,1,0,0,0,0
28,158,54.93452829112886,22.0,-18,36,-17,-17,-21,-21,6,95,-80,-144,-94,-169,0,1,0,0,1,0,1,0,0,0,0
31,171,82.88978574238693,28.4,3,66,-137,60,85,-194,-3,155,-105,-217,-45,-173,0,0,1,0,0,1,0,0,0,0,1
28,158,54.94130360705871,22.0,-31,25,-27,-274,-375,-457,27,109,-86,-152,-92,-170,0,1,0,0,1,0,1,0,0,0,0
46,162,74.95579830601706,28.6,-1,88,-48,-19,22,-18,16,109,-89,-162,-93,-157,1,0,0,0,1,0,1,0,0,0,0
31,171,82.88569622606556,28.4,-11,92,-126,-1,89,-139,29,121,-83,-176,-74,-157,0,0,1,0,0,1,0,0,1,0,0
46,162,74.95429661521115,28.6,-2,102,-85,17,84,-84,15,109,-101,-182,-89,-162,1,0,0,0,1,0,0,0,1,0,0
28,158,54.942769466617165,22.0,-25,36,-27,-195,-202,-336,38,107,-102,-159,-93,-167,0,1,0,0,1,0,1,0,0,0,0
28,158,54.93924611281838,22.0,-28,25,-31,-266,-265,-340,37,108,-102,-159,-91,-169,0,1,0,0,1,0,1,0,0,0,0
46,162,74.95406153291862,28.6,0,111,-67,21,29,-95,6,109,-88,-180,-96,-167,1,0,0,0,1,0,0,0,0,0,1
75,167,66.87466900396049,24.0,-23,94,-100,-10,-12,-20,-65,85,-129,-128,-148,-113,0,0,0,1,0,1,1,0,0,0,0
31,171,82.88386756018065,28.4,0,68,-65,-24,-29,-24,65,58,-100,-91,-122,-160,0,0,1,0,0,1,1,0,0,0,0
46,162,74.95543682083729,28.6,25,118,-58,24,49,-32,14,100,-63,-197,-97,-152,1,0,0,0,1,0,0,1,0,0,0
31,171,82.88571437703143,28.4,-6,90,-130,-10,90,-136,21,125,-81,-176,-71,-167,0,0,1,0,0,1,0,0,1,0,0
28,158,54.934621298400515,22.0,0,90,-180,16,22,-18,2,107,-125,-242,-85,-144,0,1,0,0,1,0,0,1,0,0,0
28,158,54.941297115734,22.0,-31,22,-23,-274,-377,-459,27,109,-86,-146,-94,-170,0,1,0,0,1,0,1,0,0,0,0
31,171,82.87992611839488,28.4,0,92,-104,-42,-5,-28,-15,108,-75,-176,-85,-171,0,0,1,0,0,1,0,0,0,1,0
31,171,82.88486473379872,28.4,12,112,-139,-489,-511,-612,6,150,-80,-213,-62,-184,0,0,1,0,0,1,0,0,0,0,1
46,162,74.95758782573232,28.6,-9,144,-111,-21,131,-92,-128,129,82,-153,-84,-153,1,0,0,0,1,0,0,0,0,0,1
46,162,74.95670295500238,28.6,-4,107,-97,7,88,-123,22,108,-94,-179,-89,-158,1,0,0,0,1,0,0,0,1,0,0
75,167,66.87544552578437,24.0,-9,91,-90,-14,-19,-21,-74,78,-96,-105,-146,-149,0,0,0,1,0,1,1,0,0,0,0
28,158,54.93848790060119,22.0,-2,101,-96,3,86,-122,26,102,-89,-199,-85,-164,0,1,0,0,1,0,0,0,1,0,0
31,171,82.88371910940245,28.4,-10,93,-115,62,40,-123,25,123,-86,-165,-73,-165,0,0,1,0,0,1,0,0,1,0,0
46,162,74.95738019410257,28.6,-2,110,-96,10,89,-129,39,104,-95,-183,-90,-162,1,0,0,0,1,0,0,0,1,0,0
46,162,74.95663553846408,28.6,-2,96,-99,11,75,-102,31,106,-100,-169,-110,-175,1,0,0,0,1,0,0,0,0,0,1
28,158,54.93941661478001,22.0,-9,80,-139,11,73,-70,19,110,-122,-194,-109,-151,0,1,0,0,1,0,0,1,0,0,0
28,158,54.938540279010404,22.0,-1,102,-88,-2,86,-125,10,87,-69,-197,-86,-160,0,1,0,0,1,0,0,0,1,0,0
31,171,82.88595336727214,28.4,-7,97,-122,1,92,-137,28,121,-80,-170,-73,-156,0,0,1,0,0,1,0,0,1,0,0
46,162,74.95982270168052,28.6,5,108,-66,9,89,-95,19,105,-58,-146,-95,-153,1,0,0,0,1,0,0,1,0,0,0
75,167,66.8748832749617,24.0,-13,96,-97,1,-29,-20,-59,93,-122,-109,-120,-159,0,0,0,1,0,1,1,0,0,0,0
75,167,66.87426320150126,24.0,-14,98,-103,8,-15,-21,-63,90,-97,-185,-95,-130,0,0,0,1,0,1,1,0,0,0,0
28,158,54.93853575233349,22.0,-8,100,-94,8,83,-131,35,99,-90,-185,-78,-156,0,1,0,0,1,0,0,0,1,0,0
28,158,54.94046883451771,22.0,-23,18,-25,-218,-219,-320,38,107,-102,-162,-91,-167,0,1,0,0,1,0,1,0,0,0,0
31,171,82.88725495157759,28.4,-25,69,-134,69,109,-152,18,169,-59,-218,-37,-172,0,0,1,0,0,1,0,0,0,0,1
28,158,54.93294864008884,22.0,-10,94,-112,14,-9,-21,12,101,-119,-176,-86,-143,0,1,0,0,1,0,0,1,0,0,0
31,171,82.88504463600414,28.4,2,70,-62,-34,-6,-26,73,66,-98,-91,-114,-180,0,0,1,0,0,1,1,0,0,0,0
31,171,82.8839658813864,28.4,-1,67,-64,-24,-28,-24,67,59,-99,-92,-125,-165,0,0,1,0,0,1,1,0,0,0,0
28,158,54.93596559595304,22.0,-13,101,-96,-493,-515,-616,23,110,-99,-193,-86,-163,0,1,0,0,1,0,0,0,1,0,0
28,158,54.93451622283454,22.0,-18,28,-16,-22,-22,-26,4,91,-83,-148,-95,-169,0,1,0,0,1,0,1,0,0,0,0
28,158,54.934507255942485,22.0,-18,38,-21,-20,-27,-27,28,107,-80,-154,-93,-162,0,1,0,0,1,0,1,0,0,0,0
46,162,74.95529559761599,28.6,-10,90,-96,-4,69,-120,13,104,-90,-166,-101,-159,1,0,0,0,1,0,0,0,1,0,0
28,158,54.93669159338571,22.0,-16,122,-97,-459,-494,-594,-70,244,-76,-172,-82,-164,0,1,0,0,1,0,0,0,0,0,1
46,162,74.95365836999976,28.6,4,114,-119,18,51,-13,9,108,-68,-198,-80,-145,1,0,0,0,1,0,0,1,0,0,0
31,171,82.87793473482368,28.4,-2,97,-113,70,53,18,20,125,-94,-207,-81,-189,0,0,1,0,0,1,0,0,0,0,1
75,167,66.87267752663874,24.0,-11,95,-143,-60,66,-74,8,119,-122,-194,-96,-144,0,0,0,1,0,1,0,0,0,0,1
28,158,54.938445206221274,22.0,-2,101,-87,-2,87,-124,24,95,-52,-194,-87,-157,0,1,0,0,1,0,0,0,1,0,0
31,171,82.8856958887359,28.4,-8,92,-122,6,90,-134,32,121,-85,-174,-73,-162,0,0,1,0,0,1,0,0,1,0,0
75,167,66.86962232100598,24.0,-6,108,-137,12,-42,-21,15,122,-106,-200,-81,-141,0,0,0,1,0,1,0,0,0,1,0
28,158,54.934744140273075,22.0,-16,38,-19,-13,-25,-25,30,107,-80,-148,-95,-165,0,1,0,0,1,0,1,0,0,0,0
46,162,74.95595463076948,28.6,-10,94,-93,1,74,-121,20,103,-87,-144,-115,-151,1,0,0,0,1,0,0,0,1,0,0
31,171,82.88635811424858,28.4,-2,97,-129,4,93,-138,27,119,-83,-187,-75,-160,0,0,1,0,0,1,0,0,1,0,0
31,171,82.88430499102185,28.4,0,63,-63,-37,-26,-28,70,63,-107,-89,-136,-168,0,0,1,0,0,1,1,0,0,0,0
46,162,74.95628418658612,28.6,-6,99,-97,7,80,-124,40,105,-95,-182,-88,-163,1,0,0,0,1,0,0,0,1,0,0
31,171,82.88590060392889,28.4,-8,94,-123,-2,90,-138,28,118,-85,-177,-77,-160,0,0,1,0,0,1,0,0,1,0,0
31,171,82.88465881651986,28.4,-24,81,-174,-288,-300,-394,-12,104,-69,-239,-65,-164,0,0,1,0,0,1,0,0,0,1,0
75,167,66.87552631780814,24.0,-10,96,-100,-15,-15,-21,-60,89,-132,-101,-141,-137,0,0,0,1,0,1,1,0,0,0,0
28,158,54.938648110937386,22.0,-2,102,-97,7,87,-125,30,107,-83,-192,-80,-159,0,1,0,0,1,0,0,0,1,0,0
28,158,54.93858635411342,22.0,-26,25,-32,-265,-264,-326,37,108,-102,-164,-89,-173,0,1,0,0,1,0,1,0,0,0,0
28,158,54.93406090780312,22.0,7,125,-161,-19,1,-13,19,103,-52,-229,-87,-147,0,1,0,0,1,0,0,0,0,1,0
46,162,74.95606560228364,28.6,-7,102,-87,3,80,-119,19,104,-87,-160,-100,-157,1,0,0,0,1,0,0,0,1,0,0
31,171,82.88717933065034,28.4,-7,94,-118,-1,89,-83,10,115,-81,-168,-110,-127,0,0,1,0,0,1,0,1,0,0,0
31,171,82.88595209170995,28.4,-8,94,-123,6,90,-137,31,119,-84,-176,-75,-162,0,0,1,0,0,1,0,0,1,0,0
28,158,54.93590438337721,22.0,-13,100,-103,-494,-517,-617,24,111,-99,-186,-81,-161,0,1,0,0,1,0,0,0,1,0,0
46,162,74.95759717259146,28.6,-18,114,-91,-6,95,-119,32,158,-85,-152,-101,-171,1,0,0,0,1,0,0,0,0,0,1
31,171,82.8855234500232,28.4,2,68,-63,-19,7,-26,72,66,-98,-91,-117,-165,0,0,1,0,0,1,1,0,0,0,0
28,158,54.94041817205279,22.0,-26,16,-27,-252,-217,-328,38,108,-101,-159,-90,-166,0,1,0,0,1,0,1,0,0,0,0
75,167,66.87546929978247,24.0,-14,93,-92,-8,-10,-21,-64,86,-127,-99,-144,-131,0,0,0,1,0,1,1,0,0,0,0
46,162,74.95614843338359,28.6,-9,99,-101,2,72,-124,18,103,-89,-160,-105,-159,1,0,0,0,1,0,0,0,1,0,0
28,158,54.93454493956392,22.0,-18,27,-20,-25,-24,-26,13,104,-73,-140,-96,-174,0,1,0,0,1,0,1,0,0,0,0
75,167,66.87552821617675,24.0,-11,96,-100,-17,-15,-22,-66,84,-130,-100,-142,-136,0,0,0,1,0,1,1,0,0,0,0
28,158,54.93618614556539,22.0,-31,28,-32,-282,-358,-357,29,110,-100,-153,-93,-162,0,1,0,0,1,0,1,0,0,0,0
31,171,82.88484410446691,28.4,-29,78,-129,-359,-362,-460,1,115,-82,-177,-87,-145,0,0,1,0,0,1,0,1,0,0,0
28,158,54.934300479395816,22.0,-19,26,-15,-22,-22,-24,-8,78,-94,-143,-93,-168,0,1,0,0,1,0,1,0,0,0,0
28,158,54.942472128140054,22.0,-31,25,-28,-194,-202,-340,38,107,-101,-158,-91,-165,0,1,0,0,1,0,1,0,0,0,0
28,158,54.93752902230443,22.0,-2,87,-553,-1,7,-14,6,107,-131,-243,-92,-136,0,1,0,0,1,0,0,1,0,0,0
46,162,74.95562159981336,28.6,-9,93,-98,-1,72,-120,15,104,-92,-169,-102,-161,1,0,0,0,1,0,0,0,1,0,0
46,162,74.9557266396847,28.6,-11,92,-97,0,71,-124,20,103,-89,-159,-103,-156,1,0,0,0,1,0,0,0,1,0,0
75,167,66.87459724233851,24.0,-10,94,-148,-5,91,-97,17,122,-110,-185,-83,-145,0,0,0,1,0,1,0,0,1,0,0
28,158,54.938290719578866,22.0,-1,102,-97,7,88,-116,22,99,-90,-192,-83,-160,0,1,0,0,1,0,0,0,1,0,0
46,162,74.95708024812852,28.6,3,85,-21,6,27,-29,16,98,-66,-149,-108,-155,1,0,0,0,1,0,1,0,0,0,0
46,162,74.95729879461886,28.6,-6,99,-91,-28,62,-137,11,103,-111,-159,-106,-169,1,0,0,0,1,0,0,0,0,0,1
28,158,54.93669158782694,22.0,-18,114,-80,-492,-516,-616,36,142,-116,-179,-62,-177,0,1,0,0,1,0,0,0,0,0,1
28,158,54.938426055271954,22.0,-2,101,-88,-3,87,-124,26,97,-50,-191,-86,-156,0,1,0,0,1,0,0,0,1,0,0
28,158,54.938756795013965,22.0,-5,101,-102,6,83,-128,34,105,-82,-192,-88,-161,0,1,0,0,1,0,0,0,1,0,0
46,162,74.95642813638345,28.6,10,106,-75,14,57,-109,10,111,-81,-175,-94,-178,1,0,0,0,1,0,0,0,0,0,1
75,167,66.87507467332067,24.0,-12,96,-97,3,-29,-21,-59,93,-122,-101,-123,-157,0,0,0,1,0,1,1,0,0,0,0
31,171,82.88580670652318,28.4,-11,90,-133,-2,89,-138,35,119,-80,-161,-74,-159,0,0,1,0,0,1,0,0,1,0,0
31,171,82.88378543852423,28.4,-1,65,-66,-24,-29,-25,69,62,-97,-89,-121,-158,0,0,1,0,0,1,1,0,0,0,0
31,171,82.88756274280321,28.4,-11,71,-133,-14,102,-167,14,123,-111,-224,-64,-147,0,0,1,0,0,1,0,0,0,0,1
46,162,74.95786252477353,28.6,-6,95,-98,7,82,-77,20,102,-79,-209,-100,-160,1,0,0,0,1,0,0,0,0,1,0
46,162,74.95724661937977,28.6,-17,107,-80,-15,95,-131,-15,240,-30,-155,-98,-161,1,0,0,0,1,0,0,0,0,0,1
46,162,74.95570633712164,28.6,-2,86,-47,-21,21,-19,14,107,-91,-163,-93,-158,1,0,0,0,1,0,1,0,0,0,0
28,158,54.93857978117841,22.0,-2,103,-97,3,87,-122,16,91,-97,-197,-86,-161,0,1,0,0,1,0,0,0,1,0,0
31,171,82.88397657715294,28.4,4,82,-106,-477,-499,-600,18,123,-90,-206,-81,-185,0,0,1,0,0,1,0,0,0,0,1
75,167,66.87422674854201,24.0,-16,89,-159,-7,88,-98,16,122,-107,-197,-76,-154,0,0,0,1,0,1,0,0,1,0,0
31,171,82.8850011261049,28.4,-6,93,-114,16,90,-118,25,123,-84,-162,-73,-164,0,0,1,0,0,1,0,0,1,0,0
31,171,82.88168107915268,28.4,-41,50,-147,-334,-389,-437,3,110,-76,-189,-86,-144,0,0,1,0,0,1,0,0,0,1,0
31,171,82.88458799046536,28.4,21,99,-119,1,61,-49,59,52,-54,-168,-60,-118,0,0,1,0,0,1,0,0,0,1,0
28,158,54.93702367206223,22.0,-8,102,-94,-492,-515,-615,18,131,-128,-181,-70,-175,0,1,0,0,1,0,0,0,0,0,1
28,158,54.93725192863777,22.0,-3,103,-102,-382,-404,-504,31,121,-128,-194,-91,-179,0,1,0,0,1,0,0,0,0,0,1
46,162,74.95757653768088,28.6,14,90,-14,12,29,-28,23,100,-62,-142,-104,-152,1,0,0,0,1,0,1,0,0,0,0
28,158,54.93687107936656,22.0,-8,74,-131,-474,-496,-597,48,115,-128,-166,-66,-173,0,1,0,0,1,0,0,0,0,0,1
28,158,54.938750763499655,22.0,-27,14,-38,-242,-275,-336,38,107,-102,-162,-91,-168,0,1,0,0,1,0,1,0,0,0,0
28,158,54.936401237373815,22.0,-17,90,-118,-402,-416,-518,25,35,-118,-180,-73,-160,0,1,0,0,1,0,0,0,0,0,1
28,158,54.9343405125615,22.0,1,93,-167,0,23,-17,3,107,-123,-244,-84,-144,0,1,0,0,1,0,0,1,0,0,0
28,158,54.93853014453227,22.0,-4,101,-89,-4,85,-127,27,90,-52,-195,-90,-157,0,1,0,0,1,0,0,0,1,0,0
46,162,74.95644683387052,28.6,-6,103,-96,4,80,-127,29,107,-98,-177,-90,-158,1,0,0,0,1,0,0,0,1,0,0
28,158,54.93591523606143,22.0,-10,101,-94,-492,-515,-615,3,87,-113,-197,-82,-161,0,1,0,0,1,0,0,0,1,0,0
46,162,74.95770463540589,28.6,17,92,-12,13,30,-27,23,99,-61,-144,-105,-151,1,0,0,0,1,0,1,0,0,0,0
46,162,74.95599084760153,28.6,-11,92,-99,-1,76,-124,16,104,-91,-156,-104,-158,1,0,0,0,1,0,0,0,1,0,0
31,171,82.88562263228297,28.4,-21,117,-125,5,100,-117,12,253,-40,-204,-76,-166,0,0,1,0,0,1,0,0,0,0,1
46,162,74.95596755569268,28.6,1,89,-49,-22,22,-20,8,107,-90,-163,-95,-155,1,0,0,0,1,0,1,0,0,0,0
46,162,74.95634244090311,28.6,-8,67,-42,-7,17,-35,2,95,-72,-158,-107,-167,1,0,0,0,1,0,1,0,0,0,0
28,158,54.939608146516704,22.0,-4,76,-130,13,72,-78,23,107,-108,-198,-98,-148,0,1,0,0,1,0,0,1,0,0,0
31,171,82.88578218238116,28.4,-9,93,-125,3,90,-139,31,123,-77,-171,-69,-155,0,0,1,0,0,1,0,0,1,0,0
46,162,74.95594523404446,28.6,-9,101,-102,1,79,-123,23,108,-97,-187,-90,-157,1,0,0,0,1,0,0,0,1,0,0
28,158,54.93634738192021,22.0,-17,84,-111,-492,-515,-616,33,117,-133,-195,-71,-164,0,1,0,0,1,0,0,0,0,0,1
46,162,74.95454772367876,28.6,1,103,-88,18,78,-68,-5,113,-79,-149,-89,-167,1,0,0,0,1,0,0,0,0,0,1
28,158,54.93898020984894,22.0,24,125,-118,-493,-516,-616,47,200,-124,-177,-92,-155,0,1,0,0,1,0,0,0,0,0,1
28,158,54.93844893730333,22.0,0,102,-98,9,89,-116,28,105,-83,-201,-88,-161,0,1,0,0,1,0,0,0,1,0,0
